tree
version=v3
num_class=1
num_tree_per_iteration=1
label_index=0
max_feature_idx=5
objective=regression
feature_names=TEMP DEPTH LAT LON JDAY SSS
feature_infos=[2.2260001057293266:31.342243508128544] [5:2400] [0.001:22.568000000000001] [78.012:119.999] [1:366] [25.017000198364251:36.210000000000001]
tree_sizes=16153 17236 17263 17228 17274 17247 17281 17252

Tree=0
num_leaves=185
num_cat=0
split_feature=0 5 5 3 0 5 0 0 0 4 0 2 5 5 3 5 4 2 0 2 0 2 5 0 4 2 3 5 0 0 2 0 2 0 0 0 5 5 0 3 5 2 2 0 0 0 0 0 2 0 2 0 5 5 0 0 3 3 5 3 2 4 4 4 3 3 5 3 3 0 4 3 5 2 4 0 0 0 3 3 0 2 0 0 5 5 0 3 2 3 2 0 2 4 2 4 3 3 0 2 0 2 4 4 0 3 4 4 4 3 2 4 4 4 4 4 3 5 4 4 3 2 0 3 4 0 2 5 2 5 3 2 5 3 4 5 0 4 2 3 0 0 0 2 2 0 4 5 5 3 3 5 0 4 5 3 0 2 4 0 4 0 2 2 2 4 0 3 0 4 5 5 3 4 4 4 4 4 5 0 0 0 3 0
split_gain=324193 112738 16545.3 15416.3 14393 13052.6 6220.75 5211.68 3697.11 3681.56 3714.31 2317.4 2293.47 2232.77 1986.01 1817.79 1523.51 1313.74 1112.36 1382.33 906.258 894.925 851.499 821.052 773.774 760.559 643.449 591.126 539.009 513.134 508.931 508.616 482.854 474.045 462.747 419.035 398.665 370.089 355.166 320.14 302.949 297.273 290.669 290.591 287.81 287.124 248.094 246.926 241.331 230.524 228.011 225.671 219.798 244.719 293.271 208.861 203.996 201.531 193.161 189.897 184.941 183.929 279.124 177.915 175.74 169.322 169.201 167.056 165.944 160.216 152.271 151.025 149.246 143.451 142.774 141.18 138.46 127.48 126.694 126.444 124.897 124.44 122.387 119.324 119.21 118.519 124.591 117.711 117.338 116.978 116.789 111.858 110.966 109.932 107.183 105.585 110.067 105.013 103.128 102.123 123.239 99.119 98.7085 192.544 105.353 98.5922 209.181 96.5062 93.9417 92.297 92.2853 91.0396 89.4423 88.7409 87.0486 145.818 84.182 83.4948 83.4605 83.2646 82.2679 82.0777 80.8815 80.4439 78.8555 77.8579 74.3064 73.0426 72.0587 69.8132 69.3952 69.0446 65.4856 64.079 63.6668 62.6497 62.0044 71.6445 61.9647 61.3524 61.3095 59.7821 59.2673 58.5671 58.0665 57.9501 92.9463 57.5074 57.3715 56.6072 56.3642 56.3286 56.1351 55.7772 54.067 53.6965 53.4735 53.0107 58.1767 52.5695 51.1596 51.0039 50.6435 49.8339 59.5341 49.2587 49.1874 48.4538 48.3882 48.3638 48.3162 47.6222 62.3831 47.2201 53.1482 47.1239 47.0936 46.8407 45.7827 45.6986 45.0597 43.9868 42.8913 42.6021
threshold=25.92904569046064 33.69252326339484 33.125142310635965 110.33600000000001 28.236330789031314 34.32200081510377 22.615593610398836 6.4142713325968694 27.667719577213962 100.50000000000001 27.361029352735482 4.0012000000000016 34.75540542420017 32.701999832153327 95.807000000000016 34.005000534057622 324.50000000000006 10.695500000000001 16.168375401799668 3.3420000038146953 27.605762695838894 13.164000000000001 33.322071428571434 22.615593610398836 347.50000000000006 10.429000000000002 92.298500000000018 33.418999359130872 28.401244897959184 28.322614598262444 9.8745000000000029 4.3894649837659765 9.209500000000002 8.457372587658897 28.743028205545404 25.000307277628036 34.554143264391932 33.445799627633654 27.829738902859393 95.807000000000016 35.013186977061793 12.131500000000001 20.389500000000002 26.680710659588343 26.773865506869104 27.094999320805076 28.771716886633872 28.472762944271697 9.7395000000000014 27.605762695838894 20.389500000000002 28.280000360280042 31.135814062500003 32.436569423594378 26.680710659588343 26.680710659588343 83.769500000000008 89.341500000000025 31.041948184309337 89.531500000000023 5.7979999294281006 331.50000000000006 80.500000000000014 80.500000000000014 88.528500000000022 91.566833333333349 34.059025641025649 91.359965000000017 91.70150000000001 26.680710659588343 63.500000000000007 91.154500000000013 32.294999084472664 16.228300000000004 76.500000000000014 27.541038371622566 20.276590637594463 28.503130411036306 88.62803833333335 86.078571666666676 19.336139972434015 6.5008835000000014 29.288864103680023 28.236330789031314 34.172000442504888 33.55240472228423 28.36392368421053 93.846000000000018 16.94403339944731 89.270500000000013 16.370415000000005 23.968650477717038 17.610500000000005 104.50000000000001 10.1195 122.50000000000001 91.888500000000008 91.566833333333349 29.3353737349554 6.5008835000000014 13.623190537134663 6.3600000000000003 169.50000000000003 295.50000000000006 29.3353737349554 95.807000000000016 64.500000000000014 120.50000000000001 319.50000000000006 88.303500000000014 1.4575000000000002 88.500000000000014 59.500000000000007 63.500000000000007 159.50000000000003 313.50000000000006 89.531500000000023 32.956743730150841 286.50000000000006 334.50000000000006 88.160500000000013 12.0265 27.941797163971668 81.645000000000024 82.500000000000014 28.401244897959184 3.0645000000000002 32.638066910807304 1.5140000290870652 30.345230469210772 87.34350000000002 4.7495000000000003 33.846338900572995 112.63600000000001 238.50000000000003 32.520860573399588 25.792593682287109 72.500000000000014 7.2374999999999998 88.766128333333356 11.14025324929486 5.3870847521166647 29.903386680409316 4.8861550000000014 17.414792904824075 28.046636085626918 102.50000000000001 34.161552136057182 32.082750228881842 95.807000000000016 91.772500000000022 30.66764480993152 26.861948519352158 47.500000000000007 34.422940000000004 89.44250000000001 28.802000333555046 5.5840000915527357 301.50000000000006 29.053127386349178 236.50000000000003 28.140004718263132 6.3600000000000003 6.8655000000000017 10.236500000000001 169.50000000000003 27.018635272184017 91.833166666666671 7.4118421851597711 141.50000000000003 33.260061943758281 33.418999359130872 88.116500000000016 308.50000000000006 64.500000000000014 159.50000000000003 362.50000000000006 126.50000000000001 33.855000019205114 28.534500738693172 25.000307277628036 26.680710659588343 88.80275166666668 24.147927772390712
decision_type=2 2 2 2 2 2 2 2 2 2 2 2 2 2 2 2 2 2 2 2 2 2 2 2 2 2 2 2 2 2 2 2 2 2 2 2 2 2 2 2 2 2 2 2 2 2 2 2 2 2 2 2 2 2 2 2 2 2 2 2 2 2 2 2 2 2 2 2 2 2 2 2 2 2 2 2 2 2 2 2 2 2 2 2 2 2 2 2 2 2 2 2 2 2 2 2 2 2 2 2 2 2 2 2 2 2 2 2 2 2 2 2 2 2 2 2 2 2 2 2 2 2 2 2 2 2 2 2 2 2 2 2 2 2 2 2 2 2 2 2 2 2 2 2 2 2 2 2 2 2 2 2 2 2 2 2 2 2 2 2 2 2 2 2 2 2 2 2 2 2 2 2 2 2 2 2 2 2 2 2 2 2 2 2
left_child=3 2 4 6 9 15 7 31 14 41 24 79 29 26 21 20 38 37 33 128 25 45 35 76 39 -3 34 47 30 94 49 -1 51 168 58 71 154 46 95 44 121 75 101 153 97 56 120 89 123 -17 91 -22 55 54 63 129 70 98 -6 92 83 62 -45 88 -60 127 87 136 124 176 -4 183 125 162 171 112 -5 -34 82 -8 -21 169 138 -39 157 -29 -87 180 148 108 -75 -25 -56 -93 122 182 160 -11 165 140 -101 -16 104 -104 131 106 181 167 161 -77 -81 -103 -2 -94 159 -116 -82 -59 -113 150 163 179 -7 -15 -55 -28 -51 134 -20 -43 -121 -53 -79 -125 -40 142 -37 -138 -36 -131 -35 -33 -80 -95 -78 146 155 -32 -54 -118 -109 -71 -108 -23 -31 -62 -117 158 175 -85 -97 -19 -18 -10 -165 -50 -114 -46 -9 -48 -49 -47 -173 174 -86 -30 -26 -99 -112 -14 -24 -27 -12 -13
right_child=1 5 8 23 13 12 11 18 17 10 16 22 40 48 42 28 73 27 19 80 32 43 66 50 69 105 72 85 84 36 147 141 77 99 78 67 -38 60 65 -41 -42 52 -44 61 107 74 81 170 57 126 -52 102 53 68 59 -57 -58 117 64 -61 145 -63 -64 -65 -66 -67 -68 -69 -70 151 -72 -73 -74 90 -76 109 144 132 135 110 116 -83 -84 114 173 86 -88 -89 -90 -91 -92 93 113 143 -96 96 -98 177 -100 100 -102 111 103 -105 -106 -107 152 119 -110 -111 178 118 166 -115 115 156 149 -119 -120 130 -122 -123 -124 133 -126 -127 -128 -129 -130 139 -132 -133 -134 -135 -136 -137 137 -139 -140 -141 -142 -143 -144 -145 -146 -147 -148 -149 -150 -151 -152 -153 -154 -155 -156 -157 -158 -159 -160 -161 -162 -163 -164 164 -166 -167 -168 -169 -170 -171 -172 172 -174 -175 -176 -177 -178 -179 -180 -181 -182 -183 -184 -185
leaf_value=34.634447619703487 34.56302566937287 34.625771951320516 34.575699768106119 34.615872447487341 34.543980194204778 34.643419424544852 34.655609481121097 34.642758849033399 34.5967799377364 34.606244255532694 34.571015287201291 34.627220346078246 34.648270343383665 34.600682892917646 34.613153788954662 34.636741327928 34.575600591354934 34.581731415339313 34.658802441704573 34.638917764775286 34.610264412467096 34.581983817490539 34.630663665047308 34.59334191888555 34.586713843452245 34.606027508531618 34.520680184878451 34.563895986102814 34.609138029601347 34.616668683424791 34.601459735962969 34.637947855994867 34.590582730614209 34.647910126054697 34.59392486074637 34.616642342312097 34.631174147081509 34.608748603888671 34.548237773093106 34.563578570184461 34.657329745393952 34.592562810676682 34.595826791289376 34.56955543985945 34.576517355231992 34.577971076851611 34.582884966309166 34.546788644884224 34.551397865130205 34.630168041945666 34.610617390972273 34.612956406800002 34.513669674019823 34.552084100161977 34.546583813753053 34.550673990501991 34.617140322555052 34.526219852072991 34.538409848086218 34.534051672770168 34.586640082139681 34.558334991197604 34.593687820095241 34.564690448824898 34.520367101899907 34.543728330608445 34.638166690187596 34.601020828870816 34.532734458001983 34.578046235876172 34.61050687001682 34.616097535043565 34.514970536662538 34.517482078836544 34.604541811722733 34.568451437020194 34.600242543164647 34.577271240881515 34.509059898748994 34.652872083834481 34.635344050656812 34.555153938028312 34.512427105718345 34.609661110279731 34.618722366055557 34.581400009675832 34.568018584707282 34.591392431807073 34.535405863964044 34.55482541215585 34.536326355288544 34.570153361653553 34.566436028357273 34.624779053042616 34.62285439206795 34.578591937371222 34.565726930689287 34.567072831762431 34.533271013202501 34.647455652824483 34.643294966320866 34.547138666432609 34.588069626178303 34.603244512880174 34.592824650960779 34.583462536914737 34.620091422009594 34.595151985349773 34.555635640831134 34.542167200783929 34.63234901081654 34.570101530314282 34.60067489626497 34.524982164398416 34.576315830191447 34.608850703041298 34.629837055994678 34.535156737909723 34.554812834334314 34.546930966640446 34.571356660384467 34.578306508678899 34.633562456225974 34.551032223805976 34.56710101452083 34.494886511638398 34.616306182688959 34.570139270221958 34.650973766507313 34.551254206861977 34.589978384308736 34.598885714955003 34.587117911057796 34.528391437006675 34.567628875033293 34.516852766273992 34.589200277995523 34.612839572589152 34.529010508007609 34.578941608277546 34.650222075216668 34.640068741577018 34.490391747622596 34.585768334326652 34.609005180575544 34.57477116832645 34.603485253623354 34.615363108559514 34.533350628164058 34.602044624240158 34.583004033675863 34.540137485814313 34.604748728174577 34.604438351530867 34.622172020488108 34.566069007335699 34.587886242885823 34.598872171602537 34.617548867794554 34.588401299020141 34.590744697308622 34.566698640910218 34.544027425408757 34.573322569979275 34.591145201890363 34.541349440866021 34.574419203777218 34.538095442852125 34.644870762861238 34.566163504187216 34.553325024046757 34.583768295358993 34.604213716747957 34.620449551028742 34.608304720669473 34.600422554988228 34.553503587732266 34.595070202654817 34.644052597013015 34.642135756625848 34.625740391859139 34.587234464268043 34.551121238682647 34.622419570259538
leaf_weight=166441 1379 6117 819 6407 2400 7537 6883 72229 709 7544 853 16347 6829 109 123 5213 195 1809 8646 29587 4276 476 21836 6398 589 532 453 14240 4099 11673 4012 98103 8827 96755 54 12142 18778 840 1487 1183 9277 522 908 3178 1127 1117 815 7238 2803 1914 1718 2550 2238 7941 6573 6658 7980 8029 2624 3608 1051 1334 3775 483 7493 2137 8879 3942 1461 159 1011 8450 2140 1818 4437 755 5283 6761 8298 3032 32330 4768 2780 700 2074 3562 8440 300 2877 3316 3395 1916 1906 142 1567 3114 1664 234 4102 244521 28629 1785 10755 4180 3837 1411 1455 5432 1247 1325 1923 2714 471 206 4746 730 9969 7084 2442 280 6650 68 4975 4068 1496 6018 5106 2911 8292 536 260 2473 3797 506 1033 3828 663 1519 2691 623 72036 93394 661 5693 5617 12779 690 1461 700 271 1841 1254 2094 2438 14299 808 1095 5497 1397 1042 2080 1475 2945 2070 1001 4703 565 132 85039 2639 9305 1161 1000 1705 11757 4907 208 2667 3215 12148 9650 2852 719 11223
leaf_count=166441 1379 6117 819 6407 2400 7537 6883 72229 709 7544 853 16347 6829 109 123 5213 195 1809 8646 29587 4276 476 21836 6398 589 532 453 14240 4099 11673 4012 98103 8827 96755 54 12142 18778 840 1487 1183 9277 522 908 3178 1127 1117 815 7238 2803 1914 1718 2550 2238 7941 6573 6658 7980 8029 2624 3608 1051 1334 3775 483 7493 2137 8879 3942 1461 159 1011 8450 2140 1818 4437 755 5283 6761 8298 3032 32330 4768 2780 700 2074 3562 8440 300 2877 3316 3395 1916 1906 142 1567 3114 1664 234 4102 244521 28629 1785 10755 4180 3837 1411 1455 5432 1247 1325 1923 2714 471 206 4746 730 9969 7084 2442 280 6650 68 4975 4068 1496 6018 5106 2911 8292 536 260 2473 3797 506 1033 3828 663 1519 2691 623 72036 93394 661 5693 5617 12779 690 1461 700 271 1841 1254 2094 2438 14299 808 1095 5497 1397 1042 2080 1475 2945 2070 1001 4703 565 132 85039 2639 9305 1161 1000 1705 11757 4907 208 2667 3215 12148 9650 2852 719 11223
internal_value=34.6233 34.5821 34.5584 34.6402 34.5454 34.617 34.6413 34.6427 34.5742 34.5614 34.5729 34.6277 34.6344 34.5252 34.5904 34.6034 34.5566 34.5679 34.6458 34.6395 34.5966 34.5977 34.6243 34.5998 34.5903 34.6097 34.5157 34.5613 34.612 34.6277 34.6204 34.6369 34.5925 34.6467 34.5198 34.6194 34.6245 34.5756 34.5675 34.5939 34.6484 34.5486 34.5639 34.5845 34.5957 34.6062 34.5692 34.5546 34.5372 34.6272 34.59 34.5976 34.5468 34.5444 34.5402 34.5554 34.613 34.535 34.5287 34.5456 34.5804 34.5787 34.5827 34.5297 34.525 34.558 34.6308 34.612 34.5516 34.5565 34.5949 34.6231 34.5012 34.5359 34.5975 34.5632 34.6089 34.5853 34.5137 34.6496 34.6359 34.5614 34.5213 34.5872 34.6073 34.5676 34.572 34.6288 34.5268 34.5634 34.5298 34.5875 34.5504 34.5826 34.6376 34.5759 34.5792 34.6025 34.5409 34.6477 34.647 34.5598 34.5953 34.5923 34.6003 34.5979 34.6009 34.5879 34.5697 34.5517 34.6446 34.5588 34.573 34.5624 34.585 34.5819 34.6338 34.5304 34.5629 34.5904 34.5754 34.6441 34.6395 34.5497 34.5545 34.4967 34.6201 34.5637 34.655 34.5743 34.5677 34.606 34.5808 34.5485 34.5562 34.5104 34.615 34.6057 34.5303 34.5661 34.6489 34.639 34.5077 34.5867 34.6048 34.5764 34.5847 34.6052 34.5184 34.6291 34.5921 34.5444 34.611 34.6008 34.6197 34.5777 34.5963 34.6036 34.6062 34.5969 34.5835 34.575 34.546 34.5824 34.5791 34.5451 34.5864 34.5725 34.6439 34.5701 34.5505 34.588 34.5932 34.611 34.6099 34.6044 34.578 34.5928 34.6397 34.6443 34.6292 34.5902 34.5619 34.6253
internal_weight=0 489101 290891 1.18942e+06 160428 198210 1.15625e+06 1.04624e+06 130463 89584 47261 110004 87151 70844 36698 111059 24351 93765 688304 89095 61917 28726 94951 33174 22910 14461 39440 50632 49142 58829 17706 357938 47456 599209 30829 54286 44750 43133 15998 20700 28322 42323 7972 11201 19517 17525 18652 24390 31404 12233 15867 28071 37828 29489 18591 8339 9810 26721 12517 12293 24481 8287 6953 6298 10117 7568 40665 18266 10898 2210 1830 36020 8611 8353 7715 4495 17307 19385 18312 15053 72157 8222 5525 9153 31436 26242 12002 31786 5815 7847 5213 14149 8685 7751 14079 8430 6858 10445 11608 441941 273150 7064 23795 14935 8860 8344 6933 9072 4531 2080 8170 6941 2415 2112 8313 6571 42570 15113 5156 7813 10430 19045 12512 4683 9437 6471 7020 5431 16938 1681 540 5023 10558 4574 2520 12787 14324 2182 2745 1159 168791 191497 8959 5835 10900 15328 2549 5473 2938 10240 7273 1413 3549 2914 25972 1859 1825 15900 10403 1742 5194 3284 3140 3780 3071 7506 1036 1259 157268 3454 16543 3278 2161 15536 13831 9006 797 2901 5138 18977 31486 3384 1572 27570
internal_count=1678521 489101 290891 1189420 160428 198210 1156246 1046242 130463 89584 47261 110004 87151 70844 36698 111059 24351 93765 688304 89095 61917 28726 94951 33174 22910 14461 39440 50632 49142 58829 17706 357938 47456 599209 30829 54286 44750 43133 15998 20700 28322 42323 7972 11201 19517 17525 18652 24390 31404 12233 15867 28071 37828 29489 18591 8339 9810 26721 12517 12293 24481 8287 6953 6298 10117 7568 40665 18266 10898 2210 1830 36020 8611 8353 7715 4495 17307 19385 18312 15053 72157 8222 5525 9153 31436 26242 12002 31786 5815 7847 5213 14149 8685 7751 14079 8430 6858 10445 11608 441941 273150 7064 23795 14935 8860 8344 6933 9072 4531 2080 8170 6941 2415 2112 8313 6571 42570 15113 5156 7813 10430 19045 12512 4683 9437 6471 7020 5431 16938 1681 540 5023 10558 4574 2520 12787 14324 2182 2745 1159 168791 191497 8959 5835 10900 15328 2549 5473 2938 10240 7273 1413 3549 2914 25972 1859 1825 15900 10403 1742 5194 3284 3140 3780 3071 7506 1036 1259 157268 3454 16543 3278 2161 15536 13831 9006 797 2901 5138 18977 31486 3384 1572 27570
is_linear=0
shrinkage=1


Tree=1
num_leaves=185
num_cat=0
split_feature=1 5 0 5 1 5 5 0 0 1 3 3 5 1 1 5 1 5 5 5 5 1 0 5 3 0 3 4 0 0 0 5 1 0 1 5 0 3 0 5 1 1 1 5 5 5 5 1 4 1 3 0 4 3 5 4 3 1 5 4 1 5 3 0 3 1 5 4 4 5 5 0 5 5 5 4 1 1 4 0 3 0 0 1 0 3 3 5 0 0 5 0 4 4 5 4 0 3 5 3 0 0 1 1 4 4 0 1 0 4 5 0 5 4 4 1 0 3 1 0 4 0 3 0 0 5 3 0 0 3 3 0 0 4 4 3 3 0 0 5 5 3 0 1 5 0 4 1 5 0 3 0 4 1 0 4 3 4 3 4 4 0 0 4 4 1 0 0 4 4 0 5 3 4 4 4 4 1 4 4 1 4 3 0
split_gain=307393 92239.7 24240.2 17833.5 13894.5 10443.1 7832.69 4268.92 3991.29 3855.07 3501.36 2898.43 2809.93 2671.81 2094.33 1810.59 1474.66 1247.49 1118.85 1065.74 968.297 751.978 727.456 580.219 572.226 551.673 512.925 620.931 497.085 468.052 427.614 419.545 399.668 398.652 377.657 371.852 368.522 366.585 484.375 355.468 345.977 303.189 302.053 281.173 279.21 269.113 260.202 243.034 211.142 205.973 201.303 218.905 187.441 256.582 175.62 164.019 161.692 158.98 155.738 146.879 144.236 142.394 139.259 135.94 246.459 128.878 125.675 122.412 118.286 117.647 116.837 114.981 113.691 109.351 101.206 101.191 93.8353 92.8649 89.2531 89.0185 87.5729 87.4406 87.175 86.9805 86.3008 82.3884 82.0448 81.5471 99.4457 81.4098 80.4468 78.0419 77.6626 77.003 76.0576 75.6671 74.9951 74.6044 74.3288 71.5775 73.3636 70.1786 69.6485 67.0849 67.0603 66.5142 68.7653 66.2672 65.5063 69.3078 64.176 64.1692 64.1156 63.8095 62.1241 58.8118 58.618 57.7561 56.2699 56.2239 55.3774 54.5815 54.2605 82.9885 52.7887 52.6206 52.1238 85.0402 51.5714 49.731 49.6516 47.8165 47.4676 68.3663 46.8982 46.6969 46.2064 45.6022 45.5404 45.3495 45.3203 45.113 45.0468 45.0242 45.0013 61.803 44.5459 43.2902 42.103 41.4521 40.8662 44.5187 40.5306 40.0051 39.1276 38.2693 45.8733 38.1002 37.8284 36.9667 36.6979 75.2543 47.8157 36.6646 36.113 35.9163 35.8291 35.2503 35.1799 57.8637 63.9747 35.0609 34.9291 34.6634 50.4846 34.5092 34.0932 33.3951 32.645 44.7586 32.5055 32.493 32.4799 32.1217
threshold=57.500000000000007 33.69252326339484 21.631410724768731 33.053650283720351 32.500000000000007 34.32200081510377 33.870931752481404 6.299920082092286 26.388669109781862 32.500000000000007 110.33600000000001 95.807000000000016 32.543024235939988 17.500000000000004 50.000000000000007 34.73711467889909 32.500000000000007 33.383162251489189 33.136716366090397 33.995405735464701 34.554143264391932 50.000000000000007 24.502437592236621 32.046486082054948 110.33600000000001 15.690775075192208 88.989500000000007 177.50000000000003 26.861948519352158 8.3754330103777068 4.2746200575493285 33.977054514867802 72.500000000000014 26.680710659588343 67.500000000000014 33.977054514867802 27.094999320805076 95.807000000000016 26.588406127605101 33.260061943758281 22.500000000000004 12.500000000000002 22.500000000000004 34.525000762939463 32.082750228881842 32.77099995422364 34.978732445296409 42.500000000000007 289.50000000000006 22.500000000000004 89.140499420166023 26.588406127605101 231.50000000000003 88.989500000000007 33.55240472228423 289.50000000000006 91.287500000000009 77.500000000000014 33.260061943758281 294.50000000000006 17.500000000000004 33.340999801635753 88.875500000000017 27.238177242379848 95.807000000000016 32.500000000000007 34.137582364341093 324.50000000000006 323.50000000000006 34.161552136057182 33.240281344643265 26.942392837516035 34.916999908447274 33.69252326339484 33.445799627633654 61.500000000000007 77.500000000000014 22.500000000000004 289.50000000000006 28.440078571486222 89.744500000000016 28.401244897959184 27.165499843597416 7.5000000000000009 28.322614598262444 92.354000000000013 91.154500000000013 34.172000442504888 28.593298288037197 28.094313348711847 33.313555265606318 23.241019040346149 347.50000000000006 57.500000000000007 32.324580738612589 130.50000000000003 28.36392368421053 87.811500000000009 33.846338900572995 86.027500000000018 26.680710659588343 28.236330789031314 37.500000000000007 110.00000000000001 283.50000000000006 132.50000000000003 27.481849093644538 22.500000000000004 27.667719577213962 76.500000000000014 33.821035267445232 26.773865506869104 32.77099995422364 141.50000000000003 195.50000000000003 32.500000000000007 25.492306477732793 95.807000000000016 62.500000000000007 25.640426725901232 263.50000000000006 28.094313348711847 95.807000000000016 26.773865506869104 5.2655346897859667 31.736000030517584 95.807000000000016 26.773865506869104 18.256682857237198 91.70150000000001 80.541000000000011 28.563911288146453 28.440078571486222 132.50000000000003 299.50000000000006 88.451000000000022 94.31750000000001 7.249360682853081 27.721922769204973 32.925473172652225 35.110499699891086 92.298500000000018 27.018635272184017 37.500000000000007 33.911288613861394 13.891717771055873 300.50000000000006 17.500000000000004 33.251298438632261 10.968385803567637 92.354000000000013 27.094999320805076 183.50000000000003 17.500000000000004 28.140004718263132 281.50000000000006 88.953500000000005 289.50000000000006 89.09950000000002 294.50000000000006 159.50000000000003 28.140004718263132 28.280000360280042 118.50000000000001 278.50000000000006 12.500000000000002 24.147927772390712 3.4290019970188159 304.50000000000006 130.50000000000003 28.094313348711847 33.402420455867968 85.038000000000025 177.50000000000003 322.50000000000006 177.50000000000003 203.50000000000003 72.500000000000014 293.50000000000006 116.50000000000001 87.500000000000014 353.50000000000006 118.5835 28.046636085626918
decision_type=2 2 2 2 2 2 2 2 2 2 2 2 2 2 2 2 2 2 2 2 2 2 2 2 2 2 2 2 2 2 2 2 2 2 2 2 2 2 2 2 2 2 2 2 2 2 2 2 2 2 2 2 2 2 2 2 2 2 2 2 2 2 2 2 2 2 2 2 2 2 2 2 2 2 2 2 2 2 2 2 2 2 2 2 2 2 2 2 2 2 2 2 2 2 2 2 2 2 2 2 2 2 2 2 2 2 2 2 2 2 2 2 2 2 2 2 2 2 2 2 2 2 2 2 2 2 2 2 2 2 2 2 2 2 2 2 2 2 2 2 2 2 2 2 2 2 2 2 2 2 2 2 2 2 2 2 2 2 2 2 2 2 2 2 2 2 2 2 2 2 2 2 2 2 2 2 2 2 2 2 2 2 2 2
left_child=1 3 7 4 12 16 8 30 11 17 25 22 13 23 26 43 19 49 34 60 24 37 58 41 28 29 27 44 69 137 167 63 55 86 71 128 92 38 93 56 45 83 97 65 111 165 -17 102 61 70 51 -23 82 68 77 73 116 91 80 87 98 81 -42 64 75 -7 147 84 89 166 -5 -10 96 118 -39 -18 142 -19 113 105 -4 -40 -44 125 -38 114 119 152 175 -54 -50 -13 -29 -11 -25 -83 -22 173 -3 100 -33 -67 -28 -12 -53 -49 -107 -56 109 -63 -62 172 -64 131 -43 -45 -24 148 -20 -16 -86 -115 123 -52 -32 -1 127 -101 -27 134 -71 -65 133 -104 -55 -84 -57 -9 -135 -47 -48 176 -36 -46 145 -31 -35 -21 -51 -146 151 -99 -30 -68 -154 -73 -157 163 -148 -125 161 -110 -162 -34 -102 -14 -8 -2 169 -129 -171 -130 -6 -15 -175 -89 -85 -58 179 -103 -59 -92 -93 -69
right_child=2 5 6 9 14 15 20 10 18 21 103 57 40 42 33 46 31 54 32 66 72 50 39 94 -26 35 47 36 59 144 124 99 157 146 76 -37 67 74 48 -41 62 85 52 115 143 139 140 79 90 117 122 104 53 129 107 136 177 180 -60 -61 110 108 112 78 -66 101 153 183 -70 130 -72 155 -74 -75 -76 -77 -78 -79 -80 -81 -82 95 135 141 120 -87 -88 88 -90 -91 181 182 -94 -95 -96 -97 -98 150 -100 126 164 178 132 -105 -106 106 -108 -109 160 -111 -112 -113 -114 121 -116 -117 -118 -119 -120 -121 -122 -123 -124 159 -126 -127 -128 168 171 -131 -132 -133 -134 138 -136 -137 -138 -139 -140 -141 -142 -143 -144 -145 149 -147 158 -149 -150 -151 -152 -153 154 -155 -156 156 -158 -159 -160 -161 162 -163 -164 -165 -166 -167 -168 -169 -170 170 -172 -173 -174 174 -176 -177 -178 -179 -180 -181 -182 -183 -184 -185
leaf_value=-0.17036786574266963 0.0096135858520708696 -0.045994063390497594 0.0051926637028553756 -0.079244993256441618 -0.034457868049242377 -0.0077345978429373911 0.015695483447610809 0.01802534887789372 -0.027048842906846352 -0.042094377196145553 -0.012759713929017849 -0.025216125381303828 -0.10877175451227504 -0.11008822387532342 -0.0034268055809452145 0.016692371290133384 -0.021569817862615581 -0.062025501231723457 -0.028587147114136735 -0.029257348617958711 0.024228957214525053 -0.002519654861240356 -0.003362725581992155 -0.12920119326672685 -0.015355916183043808 0.016099518785751922 -0.084470642272401669 -0.011856063316503792 0.00094366856610581537 0.022843908113056654 0.013597162872696718 0.015032766924737132 -0.0014103844349348694 -0.04907175801306829 -0.02122199926875918 0.023490787914979154 -0.031100161133199435 -0.063790619160236026 -0.046644980014180597 0.0023056925149048464 -0.075695650286716529 -0.13631154339695853 -0.11218333358004351 0.0031566556376898388 -0.070629465876932293 -0.095191992194157138 0.025838205291617559 -0.069867701122036135 -0.043480302643889052 -0.066339813841009468 -0.0093975845843006552 -0.030988289768548012 -0.03042202175848863 -0.082140035192283356 -0.053804484187880544 -0.0033486037630489855 -0.021378198581804706 -0.021839650454848213 0.0089804743861423529 0.015834584989569703 -0.038097538694931932 -0.04381010118873653 -0.096344152721446016 -0.02544528984061015 -0.035538954347788546 0.01208099488374691 -0.020123588423650772 -0.068429409808236558 -0.087179091257033964 0.032113783469674848 -0.070483804878977291 -0.040663081167368033 0.030834043145478676 -0.012383486241843118 -0.047737413966986983 0.0036005341631020343 -0.015825769290161763 -0.053688979458132509 -0.013179022606244033 -0.075291645241617827 -0.00098475893194692422 -0.041234421326971804 -0.088353384544096678 -0.15081593011097902 -0.071956846039328295 -0.14871431235327337 -0.037185992041621756 0.015297502821995015 -0.00034557859616083747 -0.067524175333733463 -0.02621564296212445 -0.037830557983781751 -0.060379037235800487 -0.0084567644447242109 -0.11715424919458188 -0.063361401704155162 0.015493493930458228 -0.1271665193640299 -0.037473424017045023 0.010234505398434075 -0.0074200816079425039 0.0046765859644610245 -0.079263887971099831 -0.0010582693074471202 -0.011499129808299443 -0.039838122620299878 -0.061553942926188349 -0.045969811384500861 -0.050408489864262052 -0.021517572072751151 -0.030052302594617251 -0.080098865178063833 -0.084403312418361118 -0.015319487008901471 -0.11620514621501261 0.009963761772321526 -0.009290772026304444 -0.072971297368457089 -0.020445165844221107 -0.023413816792330969 -0.04554310776018515 -0.032421051284950125 -0.043033000462785534 -0.038474276155876515 0.015590917255902496 -0.15311672145762342 -0.025647935157291558 -0.0054921406372928881 0.010639150754251729 -0.10408791197684222 0.019200782123256634 -0.013613022993506427 -0.081018899402292108 -0.048949003896841502 -0.10090556206066033 -0.10213739788319984 -0.025202914944863947 0.020098121717460761 -0.06951139331344032 -0.088219637805792811 0.03471768848417383 -0.15975697212625595 -0.029633252689310632 -0.059512942586640291 0.022971552190280194 0.019468945256636373 -0.025561307226484139 -0.021752211873683085 -0.05781422881311106 0.024922097673628074 -0.12814980461419839 -0.11025574761154089 0.0010512377135673313 -0.013426508780929472 -0.012879151118265009 -0.016418853289523382 -0.036546618889465199 0.0054031726013418621 -0.045604327678852509 -0.020051924788027548 -0.035043704763514455 -0.036628374740743541 -0.051234203048940809 -0.0092066293044883417 0.0056375173160848977 -0.10114216787842829 0.0097434169964616194 0.01140150572832785 -0.0010390057424924288 0.0051222882843693276 -0.017904715763611398 0.014745645930078601 -0.10144963569831157 -0.073265390960841031 -0.10573092511457989 0.0057593565865549168 -0.13532372052257255 -0.013124346798802944 0.0094040708091753019 -0.0064510444018989139 -0.011291311704384278 -0.041275299876559403 -0.026344217123163507 -0.053270670319036616
leaf_weight=1389 86402 8021 19568 10989 29 13639 6838 65634 3760 287 10259 4101 4458 711 847 14144 762 14655 5039 5583 10954 1844 12528 3675 3194 22964 7160 1108 4899 262590 91574 806 4269 7328 3843 20222 1024 4071 3380 16376 4453 979 2420 11769 1975 6374 4334 1970 2107 4515 544 3395 286 1068 11868 2788 2886 3303 23023 3303 6464 1079 2786 3325 1108 1825 6499 1582 909 1179 10930 10014 6439 4093 2166 2343 4630 7161 2436 2760 14298 666 1286 961 432 685 881 3124 5332 833 3044 5184 133 1674 3877 3380 5226 704 6819 765 3551 1937 1884 2130 782 744 1783 5779 2332 939 7971 2441 3864 774 1272 7469 11533 2392 7764 1261 844 5091 2174 2162 100031 1175 726 3133 18033 1978 11808 1951 3599 574 870 2836 398 91452 1195 7098 3960 751 5680 3905 86536 21103 574 5485 3875 71738 886 2748 1143 6347 1989 517 1927 1366 828 479 770 3675 4462 4420 971 4427 7787 73441 1221 478 4756 12796 828 311 387 2426 1093 4542 911 3965 1543 621 1069 738
leaf_count=1389 86402 8021 19568 10989 29 13639 6838 65634 3760 287 10259 4101 4458 711 847 14144 762 14655 5039 5583 10954 1844 12528 3675 3194 22964 7160 1108 4899 262590 91574 806 4269 7328 3843 20222 1024 4071 3380 16376 4453 979 2420 11769 1975 6374 4334 1970 2107 4515 544 3395 286 1068 11868 2788 2886 3303 23023 3303 6464 1079 2786 3325 1108 1825 6499 1582 909 1179 10930 10014 6439 4093 2166 2343 4630 7161 2436 2760 14298 666 1286 961 432 685 881 3124 5332 833 3044 5184 133 1674 3877 3380 5226 704 6819 765 3551 1937 1884 2130 782 744 1783 5779 2332 939 7971 2441 3864 774 1272 7469 11533 2392 7764 1261 844 5091 2174 2162 100031 1175 726 3133 18033 1978 11808 1951 3599 574 870 2836 398 91452 1195 7098 3960 751 5680 3905 86536 21103 574 5485 3875 71738 886 2748 1143 6347 1989 517 1927 1366 828 479 770 3675 4462 4420 971 4427 7787 73441 1221 478 4756 12796 828 311 387 2426 1093 4542 911 3965 1543 621 1069 738
internal_value=0 -0.0470236 0.0140202 -0.0706174 -0.0873328 -0.0105159 -0.00251011 0.018103 -0.00930348 -0.0542159 0.0208596 -0.00296603 -0.104917 -0.117041 -0.0628051 0.00790791 -0.0239993 -0.0628703 -0.0218671 -0.030249 0.0136973 -0.0406487 0.000586693 -0.135052 0.00926341 0.0214414 -0.0698552 -0.0613417 0.0108415 0.0220452 0.0127265 -0.0142787 -0.0136766 -0.0407218 -0.0299945 0.0165545 -0.0460854 -0.0450433 -0.0421521 -0.00486428 -0.0925648 -0.145997 -0.101376 0.000485919 -0.0710843 -0.0968644 0.0216402 -0.0757639 -0.0442849 -0.0715364 -0.0272668 -0.0197382 -0.0961366 -0.0884242 -0.0556892 -0.0185658 -0.00859306 -0.0274504 0.00517301 0.00416045 -0.0379252 -0.0471166 -0.0839072 -0.020661 -0.0112455 -0.00410276 -0.020852 -0.053883 -0.0711016 0.016217 -0.0748762 -0.0362448 0.024091 -0.0209205 -0.0582156 -0.00257654 -0.0228324 -0.0592891 -0.0235826 -0.0668092 0.0025846 -0.0537683 -0.103144 -0.154474 -0.044074 -0.130494 -0.0218094 0.00212166 0.00550625 -0.0580414 -0.0341381 -0.0316483 -0.0170563 -0.0133798 -0.123017 -0.0597191 0.0214075 -0.112759 -0.0420788 -0.00735851 -0.00164382 0.00163175 -0.0802729 -0.0107479 -0.0273396 -0.0616032 -0.0551604 -0.0512388 -0.0433906 -0.0334371 -0.033655 -0.0850579 -0.0894059 -0.0258574 -0.12495 0.00579946 -0.00620418 -0.064747 -0.0236497 -0.015383 -0.0544857 -0.0301642 -0.0357254 -0.0307374 0.014638 -0.162462 -0.0101068 -0.00901695 0.013947 -0.0973951 0.0203731 -0.0210699 -0.0761284 -0.0713102 -0.0905642 -0.097837 -0.00607868 0.0192321 -0.0628394 -0.0915185 0.0300777 -0.147173 -0.0262389 -0.0632468 0.0230451 0.0225929 -0.0471971 -0.025538 -0.0624022 0.0238556 -0.116655 -0.113705 -0.00246445 -0.0168147 -0.00779536 -0.0390202 -0.0322888 -0.00391183 -0.0373984 -0.035133 -0.0451777 -0.041978 -0.0488514 -0.00537625 -0.00461625 -0.10497 0.0125263 0.0104351 -0.010553 -0.0119413 -0.0158018 0.0123436 -0.0991827 -0.100764 -0.0912656 0.0111282 -0.142572 -0.0163312 -0.00116729 -0.00279902 -0.018481 -0.0287674 -0.0358669 -0.0636074
internal_weight=0 385513 1.29301e+06 234174 115977 151339 256103 1.0369e+06 180462 118197 685457 119954 67550 34090 48427 63953 87386 72164 60508 53189 75641 46033 104754 15857 53022 673068 36708 15039 49828 599053 351448 34197 30137 11719 30371 74015 5861 34653 28416 47865 33460 8305 18233 41515 9178 22357 22438 21669 26455 32701 11380 6021 12486 5944 39463 20082 31489 15200 56889 22216 29275 20683 11103 17790 4213 22277 23914 4620 2028 27612 21919 16218 22619 16896 6237 3105 14153 21816 13577 7257 33866 7426 6542 5369 2300 2936 2989 18913 10882 1119 5772 10354 1241 1961 7552 4046 16180 5747 14840 16407 5328 8638 14412 12389 4177 4497 2527 17647 13257 2018 14435 3298 6650 11141 2251 19238 24061 10782 12803 2108 1276 5865 5359 3185 191605 2564 11079 10353 53793 3916 12987 5276 7252 3653 1938 4122 3186 157086 1769 13472 8294 2805 9523 5880 441967 283693 8730 11068 8390 158274 4338 3452 8031 12846 3132 12458 2444 10055 1402 2641 11239 6007 5232 8689 4522 8885 14625 159843 9588 8367 5234 30829 857 1409 698 5550 2054 7428 6813 5902 4846 3665 6253 2320
internal_count=1678521 385513 1293008 234174 115977 151339 256103 1036905 180462 118197 685457 119954 67550 34090 48427 63953 87386 72164 60508 53189 75641 46033 104754 15857 53022 673068 36708 15039 49828 599053 351448 34197 30137 11719 30371 74015 5861 34653 28416 47865 33460 8305 18233 41515 9178 22357 22438 21669 26455 32701 11380 6021 12486 5944 39463 20082 31489 15200 56889 22216 29275 20683 11103 17790 4213 22277 23914 4620 2028 27612 21919 16218 22619 16896 6237 3105 14153 21816 13577 7257 33866 7426 6542 5369 2300 2936 2989 18913 10882 1119 5772 10354 1241 1961 7552 4046 16180 5747 14840 16407 5328 8638 14412 12389 4177 4497 2527 17647 13257 2018 14435 3298 6650 11141 2251 19238 24061 10782 12803 2108 1276 5865 5359 3185 191605 2564 11079 10353 53793 3916 12987 5276 7252 3653 1938 4122 3186 157086 1769 13472 8294 2805 9523 5880 441967 283693 8730 11068 8390 158274 4338 3452 8031 12846 3132 12458 2444 10055 1402 2641 11239 6007 5232 8689 4522 8885 14625 159843 9588 8367 5234 30829 857 1409 698 5550 2054 7428 6813 5902 4846 3665 6253 2320
is_linear=0
shrinkage=0.06


Tree=2
num_leaves=185
num_cat=0
split_feature=0 5 5 3 0 5 0 0 0 4 0 2 5 3 5 5 2 4 0 2 2 0 4 5 2 0 5 3 0 2 2 0 0 0 5 0 0 5 0 2 0 0 0 5 0 0 2 3 2 0 2 5 4 4 2 0 3 3 3 3 0 3 5 4 0 3 0 3 3 0 2 3 4 5 3 4 3 0 3 2 0 5 0 5 0 4 4 3 5 2 0 3 4 4 0 4 4 2 3 2 0 5 5 4 3 0 0 5 2 5 0 4 3 2 0 3 4 4 4 4 5 2 3 4 5 2 4 4 4 3 4 0 3 0 2 2 5 2 4 3 4 4 0 2 3 0 3 2 0 4 4 0 2 3 0 3 5 4 4 3 0 4 0 0 0 5 0 0 4 4 2 5 2 5 2 0 0 0 2 5 4 3 3 3
split_gain=253271 88066.2 12964.4 12035.4 11115.1 10210.7 4847.06 4076.03 3134.66 2792.9 2816.4 1894.65 1730.1 1702.03 1505.66 1426.59 1215.49 1043.46 859.415 1165.68 826.314 721.841 684.632 672.676 665.249 643.28 567.613 517.431 446.539 475.831 414.058 397.959 373.154 363.477 355.333 337.846 322.293 303.157 267.68 249.189 248.46 241.477 230.181 227.53 223.038 220.898 209.546 189.883 184.101 180.508 174.975 173.47 172.51 255.798 170.258 168.248 166.995 157.729 154.427 143.536 140.671 138.28 136.608 131.807 124.477 114.616 113.241 162.653 128.269 112.911 111.528 107.901 106.915 106.749 106.108 104.946 110.898 104.372 103.548 103.139 102.04 101.803 98.4934 97.2879 96.3371 95.3943 94.8155 93.7908 92.3299 90.8852 90.1226 122.151 88.2705 155.665 96.4493 87.37 92.639 85.7665 84.8984 84.3244 101.54 82.7214 99.5909 82.429 160.707 81.599 78.971 76.248 75.9505 74.9526 83.5826 73.9732 72.4956 71.4784 67.8464 67.1745 66.2215 66.2056 66.0393 78.6639 65.7459 65.2003 64.7909 63.3086 62.6143 62.1987 60.9155 60.4307 74.8306 59.4333 58.5149 57.8924 57.6269 57.2495 56.9294 56.869 54.7044 54.5319 54.1989 53.3245 51.8583 54.7173 51.8539 51.3539 51.2718 50.4415 50.0604 49.5179 49.3988 49.1357 49.0683 48.948 53.253 47.8531 47.7309 69.6856 46.9482 46.8501 48.9656 46.7616 46.4124 46.1725 46.1051 46.0574 45.9552 45.9059 45.5416 45.1152 55.7157 44.477 44.3071 43.9781 43.4619 43.2727 43.0361 42.9729 42.9522 42.4329 41.7361 41.3655 42.3323 41.3163 41.173 40.5953
threshold=25.92904569046064 33.69252326339484 33.077976400221651 110.33600000000001 28.236330789031314 34.333613872523991 22.615593610398836 6.4142713325968694 27.667719577213962 100.50000000000001 27.42320122211493 3.8940000000000006 34.719298242145648 95.807000000000016 34.016999145507818 32.701999832153327 10.695500000000001 324.50000000000006 16.168375401799668 3.1565000000000007 13.164000000000001 27.605762695838894 347.50000000000006 33.445799627633654 10.429000000000002 22.395400000000006 33.418999359130872 92.000499725341811 28.236330789031314 9.9965000000000028 9.9965000000000028 4.4900607387945124 8.6186466253720386 28.280000360280042 33.427672687027822 25.000307277628036 28.743028205545404 34.978732445296409 26.773865506869104 20.389500000000002 27.238177242379848 26.680710659588343 27.941797163971668 34.525000762939463 28.653999328866146 28.472762944271697 12.131500000000001 83.769500000000008 20.389500000000002 28.280000360280042 9.4315000000000015 31.135814062500003 331.50000000000006 82.500000000000014 8.572000000000001 26.680710659588343 87.811500000000009 91.70150000000001 89.744500000000016 91.359965000000017 26.861948519352158 91.429500000000019 31.387852395618726 61.500000000000007 28.472762944271697 95.807000000000016 26.680710659588343 88.344000885009777 89.907227500000019 23.622793556504323 16.228300000000004 88.528500000000022 84.500000000000014 34.161552136057182 89.09950000000002 132.50000000000003 92.000499725341811 27.541038371622566 91.429500000000019 6.2195000000000009 27.541038371622566 34.197067069399644 19.856350027024749 33.582000366210941 19.856350027024749 100.50000000000001 80.500000000000014 85.916333333333355 33.454705432158157 16.370415000000005 29.903386680409316 89.208500000000015 310.50000000000006 169.50000000000003 29.3353737349554 122.50000000000001 335.50000000000006 10.1195 91.503500000000017 6.6430000000000016 13.623190537134663 32.294999084472664 31.230045918367349 61.500000000000007 95.807000000000016 29.3353737349554 28.322614598262444 33.870931752481404 1.4575000000000002 32.324580738612589 26.773865506869104 321.50000000000006 88.303500000000014 4.7495000000000003 28.771716886633872 89.177500000000023 74.500000000000014 57.500000000000007 116.50000000000001 293.50000000000006 33.193000793483812 17.891500000000004 89.531500000000023 308.50000000000006 32.125999725341806 12.0265 47.500000000000007 96.500000000000014 286.50000000000006 112.63600000000001 291.50000000000006 28.440078571486222 87.34350000000002 27.361029352735482 4.9990000000000014 5.5840000915527357 30.345230469210772 1.5140000290870652 323.50000000000006 91.833166666666671 296.50000000000006 201.50000000000003 26.861948519352158 4.8861550000000014 88.658855000000017 28.534500738693172 95.807000000000016 17.350010000000005 27.941797163971668 33.500000000000007 169.50000000000003 26.680710659588343 11.799000000000001 88.766128333333356 28.593298288037197 88.62803833333335 32.893048855121329 292.50000000000006 116.50000000000001 95.139500000000012 11.285112985193566 78.500000000000014 29.158354600888391 7.5582018191242932 28.046636085626918 35.166979511512814 28.140004718263132 25.792593682287109 72.500000000000014 256.50000000000006 7.2374999999999998 33.881000259399421 6.8655000000000017 30.795954862576298 10.659500000000003 28.401244897959184 3.5444999967125175 5.5055629912317121 3.7685000524520853 32.324580738612589 238.50000000000003 93.028499664306665 91.833166666666671 95.139500000000012
decision_type=2 2 2 2 2 2 2 2 2 2 2 2 2 2 2 2 2 2 2 2 2 2 2 2 2 2 2 2 2 2 2 2 2 2 2 2 2 2 2 2 2 2 2 2 2 2 2 2 2 2 2 2 2 2 2 2 2 2 2 2 2 2 2 2 2 2 2 2 2 2 2 2 2 2 2 2 2 2 2 2 2 2 2 2 2 2 2 2 2 2 2 2 2 2 2 2 2 2 2 2 2 2 2 2 2 2 2 2 2 2 2 2 2 2 2 2 2 2 2 2 2 2 2 2 2 2 2 2 2 2 2 2 2 2 2 2 2 2 2 2 2 2 2 2 2 2 2 2 2 2 2 2 2 2 2 2 2 2 2 2 2 2 2 2 2 2 2 2 2 2 2 2 2 2 2 2 2 2 2 2 2 2 2 2
left_child=3 2 4 6 9 14 7 31 13 46 22 87 33 20 21 27 34 42 32 137 40 24 38 35 -3 84 45 36 29 80 49 176 163 97 44 61 62 125 57 88 47 126 75 157 115 74 77 63 69 116 129 55 53 -43 64 136 109 -11 105 167 -24 -13 -6 -4 140 95 67 124 133 -27 -19 -64 -42 98 111 144 -77 117 169 -46 -16 135 -21 154 -5 -71 -69 -8 127 -72 91 130 93 94 113 182 139 148 -25 160 -101 102 114 -26 142 150 -85 131 -89 110 -53 166 -79 -51 -29 172 134 -2 -66 -120 -47 -112 -84 161 -58 145 -22 -15 -129 -17 -38 -32 -98 149 -23 138 -48 -20 -30 -97 141 178 -105 -87 -12 -14 -59 -86 -7 -68 -52 -49 -153 -138 155 -28 -60 158 -35 -124 -34 -83 -81 -9 -118 -39 -18 -37 -169 -44 -132 -95 -10 -62 -174 -104 -1 -33 -36 180 -93 -70 -40 -63
right_child=1 5 8 25 15 12 11 18 16 10 17 23 37 39 28 50 26 70 19 82 41 30 60 73 103 48 83 101 81 -31 107 177 99 43 54 59 90 165 65 -41 72 52 78 -45 79 120 51 151 -50 92 58 56 -54 -55 -56 -57 66 146 156 -61 173 183 71 -65 118 -67 68 86 181 85 89 -73 -74 -75 -76 76 -78 112 -80 162 -82 123 122 106 147 143 -88 108 -90 -91 -92 179 -94 171 -96 96 132 -99 -100 100 -102 -103 175 104 -106 -107 -108 -109 -110 -111 121 -113 -114 -115 -116 -117 164 -119 119 -121 -122 -123 159 -125 -126 -127 -128 128 -130 -131 170 -133 -134 -135 -136 -137 153 -139 -140 -141 -142 -143 -144 -145 -146 -147 -148 -149 -150 -151 -152 152 -154 -155 -156 -157 -158 -159 -160 -161 -162 -163 -164 -165 -166 -167 -168 168 -170 -171 -172 -173 174 -175 -176 -177 -178 -179 -180 -181 -182 -183 -184 -185
leaf_value=0.0091566359946777393 -0.053938681932259445 0.0028215558999105839 -0.042076911233010626 -0.0050927766751395947 -0.072007709512468557 0.017719940638138778 0.029254898074850506 0.017374951298058283 -0.023994675684419708 -0.015267741092662261 -0.047410085383847535 0.0019390418855315531 0.021028394120494103 -0.070185914926715498 0.012927147984484758 -0.061821192788913598 -0.038281115570380719 -0.068494615696243225 0.032171541346349634 0.013528486089187827 -0.039302647630726335 0.0037841536439955233 -0.044543552891016046 0.0064981796110982828 -0.030165466025427943 -0.024553478131364031 -0.041714987894298554 -0.083744853684088086 -0.014862293302990067 -0.016306939432103162 -0.032192863177854796 0.013173048323283977 0.021917579107061012 -0.00018187083293059436 0.0038092719316264265 -0.0054253321427809274 -0.09181011794095259 0.026374312750782399 -0.042050054203497771 -0.023909773720964034 -0.033121512788239132 -0.048557761955239684 -0.058704233102110537 0.0055878950467432107 -0.047490402590418562 -0.07053247152850127 -0.027171127497748439 -0.002316064229866634 -0.010543983465900837 -0.0084254433439685805 -0.064274536918628444 -0.080046976122902944 -0.058750019878646295 -0.026418915208934697 -0.043120500817179518 -0.064542859725515614 -0.10211907188476441 -0.027683326622455501 -0.087971493192844058 -0.019403528702514501 -0.045378826505785702 -0.0061596357717974802 -0.076151284880444439 -0.012941938034354002 -0.027014090972489052 -0.060889316693830242 -0.074750916340117213 -0.077730107819147257 -0.075579002800023068 -0.045412007094884244 -0.094596292449472721 -0.091051567201492351 -0.017648427924082968 0.014274554450869385 -0.061277143841201691 -0.036468433355535929 -0.055026327192926681 -0.048123523171084953 -0.07302628122435087 -0.054273567974033314 0.00068316907038911301 -0.0036844620865672381 0.010495983514162902 -0.035157866338060208 -0.019328621457308161 0.0029826826249604653 -0.049769629576609339 0.027108463101026891 -0.046828076104736986 -0.077566645511570692 -0.10722462476775585 -0.11191056005960459 -0.016267892690216432 -0.033779426666480344 -0.027547537021610651 -0.02515819792152061 -0.072074510954645912 -0.00099975411463106185 -0.010634488196795914 0.021432100099264384 0.017633364535301344 -0.098549381432466679 -0.094656295595589524 -0.002954536785229472 -0.035068709935330615 -0.081157999739431774 -0.047792205236265546 -0.028428824941861813 0.015129137488842899 -0.058954867198232015 -0.068121860578108234 -0.060762529239472091 -0.072868094176124276 -0.021857378513734503 -0.10711883625025471 -0.046584690498688019 -0.00237120297559719 -0.032926017096033322 -0.043386542309011719 -0.031381763304547311 -0.062963866398036708 -0.048060668367411817 0.0055371033826699199 0.00075896890392913917 -0.062989026749259741 -0.036957839730304559 -0.017397781749241181 -0.047764456893881445 -0.06533598254766039 -0.087437238176391555 -0.026283628425964184 -0.040874536716287636 -0.032475547892247617 -0.073034506355361836 -0.026732115350323469 -0.020607053769317152 -0.063707193938166914 0.025232875237537332 -9.445385952097921e-05 -0.036632653246155188 -0.010624026299817055 -0.036254326111178264 -0.017313467005636001 -0.032286426758542423 -0.065301880014087349 0.014878731646518921 -0.047161353651907899 -0.011349282889731516 0.0090627485674446683 -0.059081497100713615 -0.074163324585333312 -0.0068525922071436341 -0.021102435261530605 -0.039254790785422329 -0.055318771476741573 -0.052900774552891341 -0.080454876137207393 0.0034494536216932146 -0.0066730360949551837 -0.018655258977334156 0.023962774090891578 -0.012621072966808028 -0.064898514637097907 0.019348087973512645 -0.015573990985282078 0.034516274977024614 -0.051435956637924912 -0.028104129464213489 -0.0083334577194415036 -0.043329230293999099 -0.080463632081625755 -0.026807907762227003 -0.041408792205633781 -0.07882618051906258 -0.017239181233579579 -0.11539499576274041 0.011066888697649296 0.015007470590484885 -0.024033988863278306 -0.094165511729096346 -0.099185211432822648 -0.091043491920751979 -0.075291797844944774 -0.030096533961424771
leaf_weight=99563 1214 6369 993 4913 2944 6730 6662 84438 843 7343 1245 32074 7454 1845 4997 3057 2126 2654 8646 34043 551 255 989 27642 3332 6024 3081 738 11380 4694 4626 104112 98020 6306 240 13444 3752 7529 1432 911 2926 3461 2766 19278 4092 6099 522 5053 1778 2633 2790 1700 1510 4110 11804 6658 1301 2666 5438 4080 159 7532 2415 1279 2091 530 869 4007 3984 2397 1777 6350 3568 6678 4095 4947 1514 666 1654 2783 4808 2552 29274 2438 5369 152 490 3059 2214 3090 2282 1251 3558 7376 4346 5727 289 1431 1082 235011 28392 3411 387 1511 1449 4039 6609 4876 5052 5218 2699 1288 1184 3112 1134 4804 1967 972 5291 3126 12810 744 9118 1881 166 77 2680 1704 1788 365 56 6874 244 2381 1607 6580 536 7717 971 1956 860 1304 2259 6690 1074 13494 578 5851 3665 4214 5124 3387 1309 623 8373 5741 6649 3123 12430 297 67421 11285 3117 85927 1834 3727 1709 735 1700 897 1830 5834 2993 1121 291 5098 73773 80490 1007 3993 3799 737 148 264
leaf_count=99563 1214 6369 993 4913 2944 6730 6662 84438 843 7343 1245 32074 7454 1845 4997 3057 2126 2654 8646 34043 551 255 989 27642 3332 6024 3081 738 11380 4694 4626 104112 98020 6306 240 13444 3752 7529 1432 911 2926 3461 2766 19278 4092 6099 522 5053 1778 2633 2790 1700 1510 4110 11804 6658 1301 2666 5438 4080 159 7532 2415 1279 2091 530 869 4007 3984 2397 1777 6350 3568 6678 4095 4947 1514 666 1654 2783 4808 2552 29274 2438 5369 152 490 3059 2214 3090 2282 1251 3558 7376 4346 5727 289 1431 1082 235011 28392 3411 387 1511 1449 4039 6609 4876 5052 5218 2699 1288 1184 3112 1134 4804 1967 972 5291 3126 12810 744 9118 1881 166 77 2680 1704 1788 365 56 6874 244 2381 1607 6580 536 7717 971 1956 860 1304 2259 6690 1074 13494 578 5851 3665 4214 5124 3387 1309 623 8373 5741 6649 3123 12430 297 67421 11285 3117 85927 1834 3727 1709 735 1700 897 1830 5834 2993 1121 291 5098 73773 80490 1007 3993 3799 737 148 264
internal_value=0 -0.0363453 -0.0573615 0.0149455 -0.0694208 -0.00550216 0.0159679 0.0172275 -0.0440568 -0.0551116 -0.0447633 0.00398731 0.0101747 -0.029717 -0.0173319 -0.0877474 -0.0497469 -0.0603418 0.0199282 0.0144299 -0.0231741 -0.0234108 -0.0302358 0.000885916 -0.0118586 -0.0206865 -0.055771 -0.0950584 -0.00943855 -0.000597499 -0.0269356 0.0120343 0.0207457 0.00350137 -0.0424109 -0.00299311 -0.0908468 0.0211235 -0.0268394 -0.0535528 -0.0151636 -0.0352205 -0.0507134 0.000836312 -0.0486517 -0.0616926 -0.0664508 -0.010055 -0.028816 -0.0230177 -0.0772475 -0.0678724 -0.0402326 -0.0365394 -0.0378198 -0.0602605 -0.0700988 -0.0201355 -0.0790545 -0.0093656 -0.0615394 0.000196964 -0.0831902 -0.0256757 -0.0333245 -0.0337128 -0.0735684 -0.0803428 -0.0702527 -0.0309445 -0.0783889 -0.0869461 -0.0246201 0.00744143 -0.054077 -0.044747 -0.0408171 -0.0534717 -0.0605657 -0.0548101 0.00692317 -0.0131381 0.0111747 -0.049424 -0.0120995 -0.0351115 -0.0746835 0.0239798 -0.0571291 -0.0837844 -0.0961319 -0.0944077 -0.0250702 -0.0264143 -0.0208033 -0.0322424 -0.0297576 0.0127718 0.00585281 0.0216894 0.0210226 -0.106273 -0.109853 -0.0227928 -0.0180858 -0.0742187 -0.0443875 -0.0347163 0.019647 -0.0640213 -0.0691616 -0.0483217 -0.06396 -0.0157014 -0.0979041 -0.0417617 -0.0132828 -0.0445954 -0.0365573 -0.0389281 -0.0654051 -0.0637868 0.00910352 -0.0095689 -0.0976913 0.0168691 -0.0211333 -0.0614024 -0.0567616 -0.0645535 -0.0874764 -0.0373822 -0.0539467 -0.0653568 -0.0225529 -0.0161016 -0.0432993 0.0288992 -0.0137013 -0.0280795 -0.0233657 -0.0276612 -0.0115585 -0.0315029 -0.0556963 0.017067 -0.0311538 -0.0151676 0.0146676 -0.0617604 -0.0706771 -0.0064146 -0.0108247 -0.0505632 -0.0520739 -0.0489942 -0.0838366 -0.00335423 -0.0044883 0.00477395 0.022751 -0.0109729 -0.0598868 0.0183701 -0.00874161 0.0290702 -0.0441433 -0.00678642 -0.0143012 -0.0549392 -0.0788549 -0.0307006 -0.0361475 -0.0746714 -0.0392671 -0.113932 0.00996965 0.0139729 -0.0186752 -0.0987291 -0.102338 -0.0779932 -0.0451638 -0.00697022
internal_weight=0 489101 290891 1.18942e+06 152587 198210 1.15625e+06 1.04624e+06 138304 85685 44800 110004 85244 39289 112966 66902 99015 21618 688304 89095 30827 63818 23182 95231 14920 33174 54369 39440 49148 14499 48898 357938 599209 52963 44646 59829 28672 32281 20913 8462 18515 12312 14097 41137 18923 28127 40885 12021 17041 32522 27462 36849 9081 7571 25723 8339 28510 10587 24040 19959 2269 39870 11709 2272 13919 10326 18149 5964 12185 15263 7521 8765 6494 35402 9218 8780 6461 4036 5317 9992 9805 34649 72732 26242 16133 9239 4497 14773 7551 4867 16963 14681 26859 23301 10091 9796 8216 11826 28724 428844 263403 10768 7357 8551 5219 11953 9047 16376 8111 10361 5143 5123 1850 5745 1872 8931 5663 2186 10508 8417 18909 3443 38689 15718 1467 21025 3231 5337 3492 3422 5638 11500 533 7464 1862 18931 1681 16363 12351 7683 3411 2551 3770 6842 2319 20948 3244 11220 10395 5083 7914 9749 4696 1159 17195 8822 12087 21859 18736 9415 165441 13837 5900 170365 3801 11256 3835 15879 2435 3663 1886 13210 4127 1280 3284 5485 173336 184602 1247 9043 5050 4721 1580 7796
internal_count=1678521 489101 290891 1189420 152587 198210 1156246 1046242 138304 85685 44800 110004 85244 39289 112966 66902 99015 21618 688304 89095 30827 63818 23182 95231 14920 33174 54369 39440 49148 14499 48898 357938 599209 52963 44646 59829 28672 32281 20913 8462 18515 12312 14097 41137 18923 28127 40885 12021 17041 32522 27462 36849 9081 7571 25723 8339 28510 10587 24040 19959 2269 39870 11709 2272 13919 10326 18149 5964 12185 15263 7521 8765 6494 35402 9218 8780 6461 4036 5317 9992 9805 34649 72732 26242 16133 9239 4497 14773 7551 4867 16963 14681 26859 23301 10091 9796 8216 11826 28724 428844 263403 10768 7357 8551 5219 11953 9047 16376 8111 10361 5143 5123 1850 5745 1872 8931 5663 2186 10508 8417 18909 3443 38689 15718 1467 21025 3231 5337 3492 3422 5638 11500 533 7464 1862 18931 1681 16363 12351 7683 3411 2551 3770 6842 2319 20948 3244 11220 10395 5083 7914 9749 4696 1159 17195 8822 12087 21859 18736 9415 165441 13837 5900 170365 3801 11256 3835 15879 2435 3663 1886 13210 4127 1280 3284 5485 173336 184602 1247 9043 5050 4721 1580 7796
is_linear=0
shrinkage=0.06


Tree=3
num_leaves=185
num_cat=0
split_feature=1 5 0 5 1 5 2 0 1 0 5 3 1 3 1 5 5 5 5 1 2 0 1 5 1 0 1 3 0 0 2 1 0 0 1 3 2 1 5 1 3 0 1 1 2 0 5 0 5 5 3 2 5 5 1 5 3 3 0 5 2 3 0 2 5 0 0 2 0 2 3 5 0 3 5 3 1 0 5 2 1 2 0 5 5 1 2 3 0 3 0 1 1 5 3 3 2 2 0 1 3 3 5 0 2 1 1 0 5 2 3 1 0 2 2 5 2 2 1 5 0 3 0 2 1 0 1 1 0 0 0 1 1 1 2 0 2 0 0 2 2 1 2 5 0 5 0 3 2 3 1 0 3 0 2 3 0 2 0 5 3 0 5 2 3 1 1 1 0 0 5 2 2 0 2 0 0 0 2 3 3 5 0 5
split_gain=242807 72450.1 18205.9 14104.1 11648.2 8217.43 6696.87 3527.96 3215.25 3153.45 2376.7 2328.03 2306.51 1896.72 1675.72 1343.13 1255.68 1239.71 990.58 877.955 759.789 581.251 565.334 464.925 457.612 433.95 420.775 407.711 368.375 346.045 519.395 317.662 315.43 287.739 284.573 279.815 275.421 265.007 263.269 255.448 230.295 225.52 224.628 223.593 221.691 216.688 206.88 197.265 193.424 192.201 191.204 182.897 179.401 179.316 173.609 162.324 138.196 138.019 158.427 133.53 131.241 130.723 126.97 125.006 123.999 113.016 112.13 109.969 107.204 106.072 103.704 102.098 100.61 98.514 95.5399 94.7622 93.7852 93.1447 91.8924 88.5333 87.7456 79.9085 195.54 77.7766 76.769 76.5557 76.4295 74.5983 71.8324 71.0378 70.8314 69.9469 69.0399 68.0362 67.8534 66.1567 65.0785 64.6629 64.7327 64.4304 64.4154 63.6741 61.7427 60.6891 59.8232 59.1709 58.7283 58.2416 57.643 56.7854 55.8468 52.1709 51.5908 51.5397 48.132 47.986 47.8763 47.8631 47.7912 47.0634 46.6493 75.8587 45.7521 45.6529 44.7794 44.5307 43.9958 43.5825 42.1992 42.1689 41.7885 41.7249 40.9792 40.3524 39.4601 39.4185 38.8409 38.6517 38.1611 37.7169 37.5369 36.6194 36.3777 36.225 36.0314 35.3553 34.8938 34.8259 34.7175 34.3872 34.3834 34.1037 33.181 33.278 33.1635 33.1058 32.4586 32.1298 31.8109 31.6216 30.993 40.1712 30.6472 30.6437 30.5352 30.1275 30.0266 29.4758 29.4483 29.0267 28.294 28.051 27.7523 27.6387 27.3105 27.0593 27.0144 26.682 26.2151 26.0515 25.9693 25.6167 25.4947 25.293
threshold=57.500000000000007 33.69252326339484 21.028950000000005 33.053650283720351 32.500000000000007 34.356906034964062 9.9305000000000003 6.5426257113575454 32.500000000000007 26.490309806402653 32.520860573399588 93.143498596191407 17.500000000000004 110.33600000000001 50.000000000000007 34.016999145507818 34.75540542420017 33.977054514867802 33.365029440962552 32.500000000000007 9.9965000000000028 24.502437592236621 72.500000000000014 32.046486082054948 50.000000000000007 28.534500738693172 27.500000000000004 88.485258333333348 4.4900607387945124 15.690775075192208 3.3420000038146953 17.500000000000004 8.7940228960359281 26.680710659588343 72.500000000000014 88.559500000000014 10.606500000000002 12.500000000000002 33.322071428571434 22.500000000000004 89.307500000000019 25.92904569046064 42.500000000000007 77.500000000000014 3.4335000000000004 26.588406127605101 34.554143264391932 27.301000598818071 34.554143264391932 32.800999343872078 88.380500000000012 4.6139998855590809 33.251298438632261 35.013186977061793 17.500000000000004 33.537999099731458 88.875500000000017 89.307500000000019 26.588406127605101 33.821035267445232 2.8323558333333341 87.190500000000014 25.331690550367288 12.646430000000002 34.653999664306646 26.861948519352158 24.325433238530994 9.9965000000000028 27.018635272184017 4.7495000000000003 89.744500000000016 33.205189228045548 24.502437592236621 89.744500000000016 34.184622296469094 88.559500000000014 27.500000000000004 27.165499843597416 32.77099995422364 10.546000000000001 17.500000000000004 11.014500000000002 27.721922769204973 33.313555265606318 33.870931752481404 7.5000000000000009 9.9965000000000028 89.208500000000015 23.241019040346149 112.63600000000001 28.440078571486222 17.500000000000004 42.500000000000007 34.32200081510377 95.139500000000012 91.154500000000013 11.799000000000001 7.2374999999999998 13.363588648006699 17.500000000000004 94.31750000000001 92.354000000000013 33.227066608717585 28.440078571486222 6.5008835000000014 22.500000000000004 37.500000000000007 27.42320122211493 32.324580738612589 12.0265 87.811500000000009 62.500000000000007 27.990999942373417 9.8745000000000029 16.047500000000003 34.822679344428444 20.389500000000002 12.765000000000001 50.000000000000007 31.736000030517584 27.165499843597416 95.807000000000016 28.236330789031314 4.9990000000000014 27.500000000000004 27.541038371622566 27.500000000000004 77.500000000000014 25.640426725901232 5.5690116107306258 7.6432532669466582 50.000000000000007 27.500000000000004 42.500000000000007 9.3594998283386257 17.689136251807216 4.1255000000000015 25.92904569046064 3.6034473234402982 13.303500000000001 13.417500000000002 110.00000000000001 10.429000000000002 32.19331291684508 11.368130741990855 33.251298438632261 23.426990022888187 82.35750000000003 2.8323558333333341 93.143498596191407 82.500000000000014 26.280129900441597 92.298500000000018 28.624210122224941 1.7750950000000001 88.451000000000022 27.094999320805076 1.4575000000000002 27.775009996164147 34.84400088500977 92.750500000000017 27.094999320805076 33.340999801635753 2.0505000000000004 85.808367500000017 42.500000000000007 42.500000000000007 12.500000000000002 27.941797163971668 23.241019040346149 33.55240472228423 1.7075000000000002 13.365500000000003 27.890085920250588 17.791221919624288 28.188499725341803 25.92904569046064 28.624210122224941 3.6350000000000002 87.901500000000013 86.768500000000017 35.166979511512814 28.140004718263132 32.638066910807304
decision_type=2 2 2 2 2 2 2 2 2 2 2 2 2 2 2 2 2 2 2 2 2 2 2 2 2 2 2 2 2 2 2 2 2 2 2 2 2 2 2 2 2 2 2 2 2 2 2 2 2 2 2 2 2 2 2 2 2 2 2 2 2 2 2 2 2 2 2 2 2 2 2 2 2 2 2 2 2 2 2 2 2 2 2 2 2 2 2 2 2 2 2 2 2 2 2 2 2 2 2 2 2 2 2 2 2 2 2 2 2 2 2 2 2 2 2 2 2 2 2 2 2 2 2 2 2 2 2 2 2 2 2 2 2 2 2 2 2 2 2 2 2 2 2 2 2 2 2 2 2 2 2 2 2 2 2 2 2 2 2 2 2 2 2 2 2 2 2 2 2 2 2 2 2 2 2 2 2 2 2 2 2 2 2 2
left_child=1 3 7 4 10 15 17 28 18 11 12 21 23 29 27 19 48 34 54 59 35 70 38 37 40 44 74 41 138 32 171 49 130 95 50 77 47 85 68 110 45 -6 79 88 62 176 -27 148 76 183 154 72 73 109 102 80 124 58 -26 105 66 175 157 134 -64 -63 -36 -56 149 131 146 150 163 -23 -17 -62 -7 -10 -58 89 -20 82 136 -42 125 119 -82 174 -13 -29 117 -61 112 -46 -77 128 -81 144 -99 -57 168 107 -5 151 -79 -3 -98 -39 167 159 156 -70 143 179 -45 -48 -90 173 -71 -1 121 137 -78 -80 -33 140 -50 -75 -16 -30 -9 -37 -89 -49 -43 -32 -28 -38 -2 -73 -40 -15 158 164 -34 -69 -8 -84 -21 -11 -24 -44 153 -87 -4 -35 -14 -19 -93 -18 161 -112 -92 -52 -65 -106 -149 -25 -53 -72 -85 -31 -54 -47 -67 -41 -22 -128 -146 -101 -159 -55 -111 -12
right_child=2 5 6 8 14 16 9 13 20 22 31 43 39 141 33 26 53 25 55 36 24 52 71 108 57 46 81 42 129 30 135 56 97 155 60 69 120 101 84 61 83 63 103 114 93 90 115 133 126 -51 51 100 172 181 67 99 78 -59 -60 91 75 65 64 92 -66 87 -68 145 111 118 169 139 -74 127 -76 94 122 104 123 96 86 -83 147 170 -86 152 -88 132 116 -91 162 142 -94 -95 -96 -97 106 98 -100 113 -102 -103 -104 -105 165 -107 -108 -109 -110 182 160 -113 -114 -115 -116 -117 -118 -119 -120 -121 -122 -123 -124 -125 -126 -127 177 -129 -130 -131 -132 -133 -134 -135 -136 -137 -138 -139 -140 -141 -142 -143 -144 -145 178 -147 -148 166 -150 -151 -152 -153 -154 -155 -156 -157 -158 180 -160 -161 -162 -163 -164 -165 -166 -167 -168 -169 -170 -171 -172 -173 -174 -175 -176 -177 -178 -179 -180 -181 -182 -183 -184 -185
leaf_value=-0.15463738648860678 0.0086618033525405983 -0.040909566867626056 0.021121725196660751 -0.072501172867229166 -0.008444269742334887 -0.0063144191856325128 0.0077685865529828479 0.016505676520646412 -0.00034318354345421414 -0.021557697998501983 -0.099634836277853134 -0.020550458677389128 -0.10956647255046423 -0.009834771988862602 -0.0031604953365970963 -0.022551982721816275 0.012669355452131445 0.030503512564263955 -0.057302456538767782 0.021068609265309832 -0.0059574586813722708 -0.0042404419029361869 -0.018592320166846445 -0.11985164098632797 -0.0041851921016895976 0.00075313536259124212 0.021541663014202336 -0.0469919844707321 0.012437125969488745 0.028562383030834162 0.014261708005603956 -0.073664181546269095 0.020697984453347067 -0.035402385034684923 0.025206402073429973 -0.026705449810614245 0.0037966720046020588 -0.12788858393965002 -0.010444198929639275 -0.077644038848902822 -0.058282999897975835 -0.028899321189195408 -0.03874562550947 -0.020453169997218454 0.010564735493859403 -0.026189288876401373 0.011945080966891593 -0.018705462349098739 0.0031967261878771761 -0.08245274639163927 0.02912527686320036 -0.0097485219595909965 0.003132426996786774 0.024721530644722232 -0.050639547925397967 -0.049416221903032534 -0.087792621516259439 -0.037856213156401107 -0.028683316197070253 -0.033845998259012189 0.0091834931653512822 -0.10280544279224198 0.014375969051011094 -0.055715880792189199 0.025572128546350478 -0.072333971630429136 0.0077847413315879702 -0.065299921498655725 -0.036110776839857923 -0.039974712871914141 0.0032183177101055382 -0.0017367885270769324 -0.0032454858399452477 -0.014342876111632886 -0.014407857414651993 0.0017521083687866816 0.0097805183976289057 -0.0073035666999717178 -0.053617677987728374 -0.082085846347202146 -0.042399377116395812 -0.016717906929227033 0.0017140131928829177 -0.049837799284012919 -0.0082722178648175129 -0.13615933606915695 -0.05318824199863556 -0.093958040964330067 -0.030910942711804258 -0.083435007686189597 -0.052456492179695779 -0.0078726525783573698 -0.049926473975766182 0.017731666639367392 -0.024302437393901182 -0.033097125386866023 -0.073853140553835406 0.020217593230453884 0.017084767571683885 -0.029706265703785713 -0.035502901444575047 -0.13326519346585239 -0.064914763814105686 -0.06480250546319527 -0.028025993532733853 -0.032320117756551296 -0.065860654814172637 -0.10636986677849909 -0.1052542349709491 -0.089692772076680111 -0.11528462887667923 -0.029341521167822664 -0.053517639145253898 -0.045902611968251975 -0.010935835646322249 0.023975803504401625 -0.014265535419928388 -0.042544568604423592 -0.026365438166675744 -0.13832258184412691 -0.029724600337420689 -0.031314354561407284 -0.00028423130018828593 -0.077539867337808002 -0.063409551527447636 -0.02465247742286537 0.014082739324824992 -0.0073672083617884292 -0.020476178253124633 0.01424629454050867 0.018348487956816883 -0.01152658305785988 -0.084181509348582956 -0.011144852148682754 -0.046531312510319042 0.01087268382349583 0.005475626781076175 -0.017331747919047156 0.010488280963926644 -0.011245061001306561 -0.0223495996928984 -0.00080731401705821644 -0.031846829403219507 -0.05951423007594004 0.02333730040987848 -0.058537458463302022 0.0040458736586552252 -0.010575864792338822 0.0012127690902856486 -0.037814536825535469 -0.0096131151471920834 -0.055503745557489846 -0.14360931475692679 -0.12086838604633117 0.0038073597766204756 -0.043360441784446771 -0.085920347187227825 0.026970720353383448 -0.024872700593321636 0.018453248410792912 -0.11701607683534035 -0.099248102136646713 -0.043749382779618373 0.007526431221904128 -0.074613539836899861 -0.015535583739575747 -0.0047133340623586916 -0.1084410721232168 -0.019076359777530801 -0.0021974479942228147 -0.039717611773003689 0.022770304804251573 -0.0026874042155463377 -0.037807659089512204 -0.089366047588032724 -0.06414644796218906 -0.02387695800584496 0.0069094116674970358 0.020730804294701324 -0.040498200731613511 0.019072214965084718 0.03222508525411346 -0.00080773898533412387 -0.092615060939753621
leaf_weight=1389 105987 8851 421 7666 404 10756 23512 85159 1414 5502 2898 5437 258 7441 847 10587 5766 5373 11036 389 535 16737 5910 2455 1324 8194 777 958 110962 6861 20865 4609 98807 2745 2376 2666 456 628 2017 1419 4190 577 481 2709 9904 1356 3695 5623 9053 9235 468 3674 8617 4131 3693 9960 4393 3250 3367 9058 9392 1656 9075 383 5861 1658 3021 6814 7254 3739 6716 3394 4671 7154 10164 9503 2027 1266 303 1764 3496 2363 1323 4160 2130 1075 7299 3009 7301 241 2371 427 2995 9196 374 881 6555 219025 26631 1216 492 685 7783 2882 1711 4285 6685 1623 3437 26 695 9423 2147 6112 6510 1763 680 4026 1236 1175 5034 1149 8218 5504 2297 5054 2735 5870 1261 79690 92328 863 3169 4637 2196 30294 1789 985 67349 2694 1808 2067 2902 2074 44333 4705 14751 8798 1713 512 2074 4798 751 979 7368 5985 1100 4376 5504 8303 601 2946 3768 478 1568 1171 4895 1220 1823 7588 1307 5363 4485 1615 426 858 698 5880 20230 2384 2279 2714 21 5099
leaf_count=1389 105987 8851 421 7666 404 10756 23512 85159 1414 5502 2898 5437 258 7441 847 10587 5766 5373 11036 389 535 16737 5910 2455 1324 8194 777 958 110962 6861 20865 4609 98807 2745 2376 2666 456 628 2017 1419 4190 577 481 2709 9904 1356 3695 5623 9053 9235 468 3674 8617 4131 3693 9960 4393 3250 3367 9058 9392 1656 9075 383 5861 1658 3021 6814 7254 3739 6716 3394 4671 7154 10164 9503 2027 1266 303 1764 3496 2363 1323 4160 2130 1075 7299 3009 7301 241 2371 427 2995 9196 374 881 6555 219025 26631 1216 492 685 7783 2882 1711 4285 6685 1623 3437 26 695 9423 2147 6112 6510 1763 680 4026 1236 1175 5034 1149 8218 5504 2297 5054 2735 5870 1261 79690 92328 863 3169 4637 2196 30294 1789 985 67349 2694 1808 2067 2902 2074 44333 4705 14751 8798 1713 512 2074 4798 751 979 7368 5985 1100 4376 5504 8303 601 2946 3768 478 1568 1171 4895 1220 1823 7588 1307 5363 4485 1615 426 858 698 5880 20230 2384 2279 2714 21 5099
internal_value=0 -0.0417926 0.0124606 -0.0627028 -0.077568 -0.00943737 -0.00141035 0.0161149 -0.0481168 -0.0088907 -0.093668 -0.00362782 -0.105112 0.0187322 -0.0551104 -0.0207112 0.00790136 0.0105435 -0.0560205 -0.0271966 -0.0357265 0.000475616 -0.0218977 -0.122099 -0.0408398 0.0161765 -0.0125816 -0.0614167 0.0113733 0.0191215 0.0149099 -0.0825996 0.0195766 -0.0353569 0.00290902 -0.0241059 -0.0173892 -0.131741 -0.0261155 -0.0903943 -0.0449669 -0.052533 -0.0659176 -0.0209265 0.018961 -0.0401511 0.00678125 -0.0118578 0.00149099 -0.0883494 -0.00252881 -0.00740919 -0.00471007 0.0197273 -0.0641991 -0.0499784 -0.0768075 -0.0283529 -0.0217689 -0.033514 0.00718482 -0.0855228 0.0224642 -0.0540248 0.0187694 -0.0884993 0.0154545 -0.0596492 -0.0298094 -0.0309498 0.00470401 -0.011797 0.000368275 -0.0072856 -0.0185629 0.00486857 -0.00240125 -0.0136419 -0.081245 -0.0700063 -0.0535403 -0.00635855 -0.00496626 -0.0521323 -0.0185019 -0.139667 -0.0496942 -0.0856319 -0.0258693 -0.0543171 -0.0424085 -0.0301413 -0.0574013 0.0140154 0.000765533 -0.0192894 -0.07126 0.0204932 0.019878 -0.0460255 -0.0147036 -0.117248 -0.0686792 -0.0577998 -0.0181753 -0.0381077 -0.0698177 -0.112373 -0.11084 0.0158628 -0.101003 -0.0322859 -0.0610285 -0.0425481 -0.0137325 0.0158311 -0.0294927 -0.0382816 -0.0365936 -0.147161 -0.0263581 -0.0198149 0.00170711 -0.0762916 -0.0702534 -0.0209559 0.00611748 -0.0111989 -0.0135187 0.0131933 0.0174643 -0.0229935 -0.0889432 -0.0152884 -0.0428625 0.0122549 0.0103405 -0.0106457 0.00937147 -0.00594429 -0.0160716 -0.00787224 -0.0263422 -0.065035 0.0214183 -0.0625378 0.00633342 -0.00758195 0.00488733 -0.0229417 -0.0162598 -0.0539768 -0.132817 -0.128871 0.00474321 -0.0408582 -0.0904128 0.0270523 -0.0236488 0.0160828 -0.104393 -0.102309 -0.0471122 0.0182117 -0.0709037 -0.022951 -0.00848012 -0.116064 -0.012842 0.000345357 -0.0474184 0.0260212 0.00114022 -0.0325049 -0.0758156 -0.072558 -0.0161017 0.00918672 0.0225206 -0.0368529 0.0242659 0.0276966 -0.0499782 -0.0951589
internal_weight=0 385513 1.29301e+06 234174 115977 151339 269616 1.02339e+06 118197 165839 67550 118067 33212 659404 48427 91709 59630 103777 72164 51013 46033 95430 47772 15417 31967 59716 40696 36708 363988 649896 63383 34338 586513 11719 44061 14066 19986 8305 33700 17795 24026 12344 24364 22637 46064 14369 13652 12362 38669 17232 19395 11606 42863 20961 30661 41503 17106 7941 4691 31027 24666 12195 26964 11940 14936 9918 5397 15212 22691 8504 52567 14072 5617 29761 20751 19269 21001 5562 10200 16203 21831 19945 17582 9657 11009 5369 10795 8262 13418 1199 13136 17891 9167 19100 9877 2989 15004 409026 245656 19672 5989 2936 15449 8161 4148 13136 13240 2251 7112 14116 5600 16677 6172 9712 9219 5458 7981 6997 4975 2564 7624 2590 10245 5807 6906 8879 17668 13024 2108 190652 177487 3529 6178 10260 2773 51159 2566 1441 173336 6088 3825 9508 8833 4025 163370 11519 38263 15016 2102 6014 7984 5279 2805 2054 7789 8730 1358 12028 5931 14069 4242 3641 6139 946 1951 2882 13693 3675 5497 14304 5467 12224 13102 2971 2084 2277 1233 8615 64563 3600 6655 6845 47 7997
internal_count=1678521 385513 1293008 234174 115977 151339 269616 1023392 118197 165839 67550 118067 33212 659404 48427 91709 59630 103777 72164 51013 46033 95430 47772 15417 31967 59716 40696 36708 363988 649896 63383 34338 586513 11719 44061 14066 19986 8305 33700 17795 24026 12344 24364 22637 46064 14369 13652 12362 38669 17232 19395 11606 42863 20961 30661 41503 17106 7941 4691 31027 24666 12195 26964 11940 14936 9918 5397 15212 22691 8504 52567 14072 5617 29761 20751 19269 21001 5562 10200 16203 21831 19945 17582 9657 11009 5369 10795 8262 13418 1199 13136 17891 9167 19100 9877 2989 15004 409026 245656 19672 5989 2936 15449 8161 4148 13136 13240 2251 7112 14116 5600 16677 6172 9712 9219 5458 7981 6997 4975 2564 7624 2590 10245 5807 6906 8879 17668 13024 2108 190652 177487 3529 6178 10260 2773 51159 2566 1441 173336 6088 3825 9508 8833 4025 163370 11519 38263 15016 2102 6014 7984 5279 2805 2054 7789 8730 1358 12028 5931 14069 4242 3641 6139 946 1951 2882 13693 3675 5497 14304 5467 12224 13102 2971 2084 2277 1233 8615 64563 3600 6655 6845 47 7997
is_linear=0
shrinkage=0.06


Tree=4
num_leaves=185
num_cat=0
split_feature=1 5 0 1 5 5 5 0 0 3 1 1 5 5 5 5 1 3 5 5 5 0 3 0 3 4 5 0 1 0 5 1 0 0 1 5 3 1 3 0 1 1 4 5 5 5 1 5 1 5 5 5 4 0 4 4 3 3 5 0 3 0 5 5 0 5 4 4 3 1 5 4 5 5 4 0 1 1 4 0 1 4 3 1 0 3 1 4 0 4 0 5 0 4 0 3 3 0 4 4 4 0 4 0 0 5 0 5 5 0 3 0 0 0 1 5 0 5 4 3 1 3 1 3 0 5 4 0 4 3 5 5 5 4 4 4 1 0 5 3 0 4 4 1 3 0 3 1 3 5 1 3 3 4 3 0 5 1 3 4 4 4 5 0 5 3 0 0 3 0 0 3 5 4 4 3 0 3 0 4 0 4 5 0
split_gain=214545 64085.8 16088.6 11211.3 10595.2 9290.66 5601.9 3209.01 2758.21 2306.44 1905.65 1869.61 1708.87 1656.69 1417.34 1348.05 1313.16 1294.97 775.542 733.273 650.871 569.972 436.822 400.894 377.332 391.222 340.857 339.109 330.105 326.626 304.173 286.555 267.386 286.95 247.02 237.224 235.389 235.133 223.551 265.09 211.778 200.001 197.272 182.604 178.201 176.555 176.174 155.002 149.79 138.832 135.109 133.565 129.506 128.731 127.948 123.94 122.845 118.855 114.359 113.601 195.656 107.045 106.166 105.759 104.24 102.184 99.4795 98.4949 97.4062 94.5994 89.4537 80.1631 80.1409 78.4881 77.8291 97.5833 76.5142 72.4999 72.2123 73.3155 68.6311 67.7983 91.7044 67.2294 65.6527 65.5346 65.456 65.4434 133.505 92.1856 94.1818 63.7323 62.78 60.9487 60.5261 60.4653 60.4129 58.2504 78.4923 78.4056 58.0851 55.4452 94.4392 79.0501 55.3331 54.7583 54.3419 53.7147 51.6397 51.4383 48.8919 48.2257 47.3927 47.1459 47.0048 46.5317 46.3564 46.2125 45.7342 59.1912 45.5794 44.209 43.9402 43.0098 42.8376 41.7491 41.5383 40.2469 39.0763 39.0354 38.8095 38.6534 38.5455 38.13 37.2042 54.0689 37.1106 36.7145 36.2381 35.9268 46.3079 35.3919 33.8225 33.7888 33.6669 33.196 32.9943 32.7855 32.6973 32.3938 32.216 32.1773 31.8458 31.5113 31.504 31.332 29.4925 29.4572 29.0352 28.3351 28.2554 27.9182 27.2904 31.7189 27.2402 27.1735 26.8449 26.7936 26.7828 26.6325 26.2269 26.1519 26.0192 25.8966 37.6811 25.7029 25.4251 25.335 25.1622 25.1136 25.1123 24.9228 24.4307 38.3314
threshold=57.500000000000007 33.610449814029046 20.659855954489505 32.500000000000007 32.863857686375283 34.2249385070835 33.86468542773553 6.5426257113575454 26.280129900441597 95.807000000000016 50.000000000000007 17.500000000000004 34.653999664306646 33.077976400221651 32.324580738612589 33.251298438632261 32.500000000000007 110.33600000000001 33.901078711593364 33.193000793483812 34.554143264391932 24.147927772390712 110.33600000000001 26.773865506869104 88.451000000000022 187.50000000000003 33.870931752481404 26.490309806402653 72.500000000000014 4.2746200575493285 34.916999908447274 67.500000000000014 15.274099799810388 8.8826025491563776 27.500000000000004 33.251298438632261 95.139500000000012 12.500000000000002 95.807000000000016 26.588406127605101 27.500000000000004 42.500000000000007 324.50000000000006 31.917999633789069 34.082762813578988 33.437000137329107 22.500000000000004 32.360237322368256 72.500000000000014 32.125999725341806 34.436513165830675 33.053650283720351 289.50000000000006 27.018635272184017 233.50000000000003 294.50000000000006 91.287500000000009 91.70150000000001 33.742228799025121 27.301000598818071 95.807000000000016 28.046636085626918 32.638066910807304 33.053650283720351 28.503130411036306 33.277999938964847 289.50000000000006 289.50000000000006 87.190500000000014 17.500000000000004 34.070552082859358 61.500000000000007 34.945999908493839 34.161552136057182 322.50000000000006 27.990999942373417 22.500000000000004 77.500000000000014 177.50000000000003 28.140004718263132 7.5000000000000009 80.500000000000014 88.916500000000013 50.000000000000007 23.052845823917441 88.62803833333335 22.500000000000004 63.500000000000007 28.36392368421053 132.50000000000003 27.481849093644538 34.478287150176506 26.861948519352158 66.500000000000014 25.331690550367288 88.03366666666669 92.354000000000013 27.721922769204973 159.50000000000003 102.50000000000001 278.50000000000006 28.472762944271697 132.50000000000003 27.165499843597416 26.942392837516035 33.69252326339484 28.36392368421053 35.110499699891086 33.445799627633654 27.481849093644538 89.744500000000016 27.094999320805076 28.280000360280042 23.241019040346149 17.500000000000004 33.700000381469735 5.2024041513235284 32.082750228881842 277.50000000000006 91.640010000000018 17.500000000000004 80.541000000000011 62.500000000000007 87.901500000000013 25.331690550367288 33.462501383841072 334.50000000000006 7.7245970628926282 141.50000000000003 91.566833333333349 33.313555265606318 32.324580738612589 34.005000534057622 289.50000000000006 310.50000000000006 114.50000000000001 82.500000000000014 28.140004718263132 33.216029197230561 110.33600000000001 26.773865506869104 274.50000000000006 271.50000000000006 32.500000000000007 95.807000000000016 28.401244897959184 88.726500000000016 72.500000000000014 94.31750000000001 33.331020502014709 17.500000000000004 91.219500000000011 85.038000000000025 352.50000000000006 89.307500000000019 27.094999320805076 33.077976400221651 37.500000000000007 89.240498931884773 353.50000000000006 289.50000000000006 286.50000000000006 33.715010563480924 13.132029365748169 31.041948184309337 95.807000000000016 25.492306477732793 28.563911288146453 95.139500000000012 17.689136251807216 25.92904569046064 91.154500000000013 32.701999832153327 167.50000000000003 323.50000000000006 110.33600000000001 3.3720116626613339 91.287500000000009 22.838900562718798 82.500000000000014 28.094313348711847 330.50000000000006 34.172000442504888 28.624210122224941
decision_type=2 2 2 2 2 2 2 2 2 2 2 2 2 2 2 2 2 2 2 2 2 2 2 2 2 2 2 2 2 2 2 2 2 2 2 2 2 2 2 2 2 2 2 2 2 2 2 2 2 2 2 2 2 2 2 2 2 2 2 2 2 2 2 2 2 2 2 2 2 2 2 2 2 2 2 2 2 2 2 2 2 2 2 2 2 2 2 2 2 2 2 2 2 2 2 2 2 2 2 2 2 2 2 2 2 2 2 2 2 2 2 2 2 2 2 2 2 2 2 2 2 2 2 2 2 2 2 2 2 2 2 2 2 2 2 2 2 2 2 2 2 2 2 2 2 2 2 2 2 2 2 2 2 2 2 2 2 2 2 2 2 2 2 2 2 2 2 2 2 2 2 2 2 2 2 2 2 2 2 2 2 2 2 2
left_child=1 3 7 4 11 16 8 29 9 21 13 14 40 24 37 46 18 32 58 28 22 65 23 73 25 49 59 36 53 176 143 66 33 127 47 56 94 43 39 93 50 87 61 80 169 69 63 54 84 92 -7 118 97 129 111 78 124 74 114 60 71 -27 -16 -6 -42 110 105 115 173 -17 120 170 106 113 75 -56 -47 133 147 -80 -1 131 -83 132 -11 -49 -60 117 89 -89 126 134 152 -15 -12 -48 109 99 137 -41 158 102 -43 168 153 155 -22 -32 -40 -39 -4 -13 -100 -8 -3 -61 -31 -26 -29 -120 -20 -75 -55 -77 -23 -50 -91 -9 167 141 181 -70 -28 -33 135 -66 -30 146 -114 140 -85 -10 -63 -14 -71 -130 -99 182 -68 -139 -72 161 -5 -44 -113 175 -97 -51 -53 -132 -116 -90 163 -35 -82 -102 -58 -117 -104 -34 -18 -92 -87 -36 -175 -21 -2 -105 -112 -115 -106 -54 -25 -184
right_child=2 5 6 10 15 12 20 17 19 48 27 34 30 38 62 45 26 -19 70 31 72 35 -24 55 41 42 83 51 136 116 107 77 44 162 68 -37 -38 96 108 52 64 101 104 -45 -46 76 95 85 125 157 -52 100 130 122 57 -57 166 -59 86 67 -62 142 -64 -65 91 -67 148 -69 81 144 150 -73 -74 121 -76 123 -78 -79 79 -81 164 82 -84 139 -86 172 -88 88 151 90 171 -93 -94 -95 -96 156 -98 98 112 -101 165 -103 103 177 180 -107 -108 -109 -110 -111 178 154 138 179 160 128 -118 -119 119 -121 -122 -123 -124 -125 -126 -127 -128 -129 145 -131 159 -133 -134 -135 -136 -137 -138 149 -140 -141 -142 -143 -144 -145 -146 -147 -148 -149 -150 -151 -152 -153 -154 -155 -156 -157 -158 -159 -160 -161 -162 -163 -164 -165 -166 -167 -168 -169 -170 -171 -172 -173 -174 174 -176 -177 -178 -179 -180 -181 -182 -183 183 -185
leaf_value=-0.14146543485578683 0.0079010891122375717 -0.043308626758021045 0.0054365751728502705 -0.02620959563399939 -0.074873819347337459 -0.011273375631076369 0.015543200396074212 0.015576554777620322 -0.020544061315285876 -0.019765182342092093 4.4390219346711767e-05 -0.106142231830838 0.0087864380407635789 -0.040378102391833891 -0.096522576809499841 -0.058888920718742327 0.00083960980097104118 -0.0064498953734165284 -0.028573174446575093 -0.011061818152330658 0.020524706592316935 -0.0016284070121645635 -0.011589883578915033 -0.0012725220825529262 -0.079768197020384554 -0.011393303389921878 -0.015226233911177132 -0.040445478888702764 -0.016062813036308195 0.011209379934999509 0.02022460721843649 -0.0092462766232266173 0.01401204328236243 0.019143796420813673 -0.068803022918423912 0.0025417263586013233 -0.035727015166874959 -0.11622082482614825 -0.053003443535708801 -0.040527225421163125 0.0074315764206622061 -0.059254966753463166 -0.012124824190515417 -0.11505427963716269 0.020048904334978603 -0.049810373637615882 -0.054654675498726567 -0.073089900273307792 -0.019352997620740994 -0.058389873774971235 -0.0021002911535180743 -0.025751662421276425 -0.029144472049724236 -0.033469892034787951 -0.021903587254941171 0.01444542727174924 -0.0095079527012684097 -0.097566401961131255 -0.035392877797057312 -0.031034820238741784 -0.031949731143348425 -0.049561907716228489 -0.08580927975838766 -0.066401120275113523 0.001189653049945501 0.0087128460879893205 -0.0023802941288318439 -0.012537579436251093 -0.091257648159189297 -0.049084770667796242 -0.021258321930225043 0.00099808460013690544 0.026364152861812113 0.027690206549301467 -0.089836043508066496 -0.05754789437323652 -0.042522270603822479 0.00077197561604490687 0.0052457329809507316 -0.0068509672277197956 -0.11508284451869817 -0.056874501326888642 -0.077196904636120764 0.0092083516971049016 -0.030870142214766805 -0.086987448469245304 -0.027085308438847926 -0.066368974310261411 -0.067704836333276966 -0.027173547661483721 -0.050332555315726675 0.0034800172174386376 -0.062696065181164509 -0.0076934052792798956 -0.014687981511709821 -0.06773547048123188 -0.12250802765830909 -0.034170457140496095 -0.034452209983402642 -0.021217357367514327 -0.013066323544726458 -0.061024926862446184 -0.018905916363284044 -0.042797194728325522 -0.054753789229406123 -0.011249816830711962 0.013336351164473053 0.028937505354483924 -0.04038797391738478 -0.099616629980861557 0.0036943045705321127 -0.086115862114471184 -0.057829422741052627 0.0042976510066916607 -0.038483507513277664 -0.02236154175213648 0.013043933209531631 -0.063902562998087303 -0.024423007900442873 -0.044372695586343873 -0.021819926678137078 0.016472865683580355 -0.027147856966562876 -0.079085553557899327 -0.0064589556937317766 -0.011772796491396269 -0.06010501668096848 0.017351136798130468 -0.01760606298187168 -0.027306910832431631 -0.021958271615499694 -0.071532987276426485 -0.008758844602132736 0.0019107826602856781 0.0063607762972544947 -0.0089661330441333422 -0.0078147813096504665 -0.040208471202696099 -0.046074590408578649 -0.022177547572074862 -0.0052486089725084601 -0.0094062895560483271 -0.028966280236959067 0.014038212033287749 -0.05708717454769989 -0.030557220882541907 -0.048026747300532427 0.0091483527533556819 -0.023914066907961024 -0.029672637534565761 -0.014763272845247153 -0.072270498266584049 -0.085545864743071715 -0.056405721638494957 -0.099119037493069315 -0.022577497420506912 -0.0597908841750424 -0.048647534330434325 -0.034849558411437477 -0.037578400519593512 -0.029307213349481012 -0.057170963462865418 0.019887862727041811 0.01685973014300458 -0.13016205305531642 -0.04178283690382506 -0.016542220138018864 -0.010927497847303531 -0.046537210280577578 0.011219926641249453 -0.026938643939657829 -0.063273624154446387 -0.078264486489883198 -0.039755368493523173 -0.06428040704431133 -0.032642107141503673 0.0094145351826316614 -0.05526772553581652 -0.0014445351555517252 0.010868882727631568 -0.040640922927975658 -0.042634566086180069 0.012599049495419784 0.00087951895569133806
leaf_weight=2074 79722 7667 20907 34 9736 12489 6557 91648 4177 2965 1698 1790 11546 241 6335 10843 153 7882 7270 1593 12494 14462 3619 3279 1775 1225 5755 6734 7167 84861 7140 7924 24275 194210 1019 18812 1604 930 3903 1874 6683 2542 224 3425 15100 15827 3742 3105 6414 1683 10761 2981 1043 7023 137 3421 5075 1677 10451 4281 1335 448 7020 11650 2760 23683 2087 2321 1517 8206 5555 2349 5987 1399 1242 429 7713 6026 2845 4928 572 965 4657 1071 5420 3599 5071 1961 3500 730 1210 5743 1704 1390 2456 3730 808 982 1014 1270 1256 2839 518 1217 1658 2871 5432 3960 1667 2418 6184 1186 1193 2891 5946 2024 119284 1053 1657 791 7123 13189 9068 1504 12171 4417 170 92391 958 2165 2429 468 7833 1281 1019 5968 2705 1768 4526 328 3125 1362 799 7136 2460 2780 1672 4370 289 2589 5443 4045 770 78 1544 7099 3064 3324 2191 505 1516 1222 177302 24668 1753 131 3175 1161 167 24927 611 1050 1871 361 601 227 80121 1132 7703 7592 625 935 1695 2467
leaf_count=2074 79722 7667 20907 34 9736 12489 6557 91648 4177 2965 1698 1790 11546 241 6335 10843 153 7882 7270 1593 12494 14462 3619 3279 1775 1225 5755 6734 7167 84861 7140 7924 24275 194210 1019 18812 1604 930 3903 1874 6683 2542 224 3425 15100 15827 3742 3105 6414 1683 10761 2981 1043 7023 137 3421 5075 1677 10451 4281 1335 448 7020 11650 2760 23683 2087 2321 1517 8206 5555 2349 5987 1399 1242 429 7713 6026 2845 4928 572 965 4657 1071 5420 3599 5071 1961 3500 730 1210 5743 1704 1390 2456 3730 808 982 1014 1270 1256 2839 518 1217 1658 2871 5432 3960 1667 2418 6184 1186 1193 2891 5946 2024 119284 1053 1657 791 7123 13189 9068 1504 12171 4417 170 92391 958 2165 2429 468 7833 1281 1019 5968 2705 1768 4526 328 3125 1362 799 7136 2460 2780 1672 4370 289 2589 5443 4045 770 78 1544 7099 3064 3324 2191 505 1516 1222 177302 24668 1753 131 3175 1161 167 24927 611 1050 1871 361 601 227 80121 1132 7703 7592 625 935 1695 2467
internal_value=0 -0.0392851 0.0117129 -0.0607088 -0.0719129 -0.0113512 -0.00111632 0.0152045 -0.00666663 -0.00171587 -0.0441981 -0.0925557 0.00429669 -0.0492049 -0.104332 -0.057697 -0.0241248 0.0177227 -0.0298729 -0.0169811 0.0120191 0.00157442 0.00859755 0.00993481 -0.057498 -0.0490115 -0.0151977 -0.0286636 -0.0230267 0.0106909 0.0154664 -0.0100573 0.0180183 0.0184251 -0.0817737 -0.00288894 -0.0162043 -0.119316 -0.0384235 -0.035855 -0.00302684 -0.0617434 -0.0361089 -0.125442 0.0143473 -0.0510129 -0.0671297 -0.0859014 -0.0209227 -0.057694 -0.00702772 -0.0332211 -0.0376007 -0.0268535 -0.0911764 0.00390833 -0.00581763 -0.0845518 -0.036297 -0.0210517 -0.0127337 -0.0239905 -0.0908912 -0.0702583 0.00116836 0.00567278 -0.0161998 -0.0237872 -0.0739883 -0.0549424 -0.0221179 -0.00449295 0.0203538 0.0143182 -0.0779619 -0.0708374 -0.0474224 -0.00434429 0.00206768 -0.00242345 -0.133531 -0.0770744 -0.0737086 -0.00938875 -0.0269433 -0.0800519 -0.0326788 -0.0655411 -0.063847 -0.0561499 -0.0498083 -0.00153383 -0.0692167 -0.012523 -0.00866594 -0.0607793 -0.107783 -0.0400947 -0.0417801 -0.0327271 -0.0266818 -0.0541994 -0.0507242 -0.0435769 -0.0476975 -0.0184569 0.0183465 0.023333 -0.0492279 -0.104229 0.00360352 -0.0984885 -0.046407 0.0115527 -0.0400092 -0.0261177 0.0122813 -0.0738607 -0.0378924 -0.0308692 -0.025231 0.0175486 -0.0299071 -0.0743056 -0.00383592 -0.0162617 -0.0333939 0.0164674 -0.023077 -0.0204755 -0.0290258 -0.0866072 -0.011498 -0.00769362 -0.00448803 -0.00575463 -0.0138028 -0.0373366 -0.0485267 -0.00305349 -0.00155857 -0.0178054 -0.0363655 0.0107925 -0.0509304 -0.027238 -0.0428998 0.00502336 -0.00499951 -0.0339479 -0.0180439 -0.0683431 -0.0830366 -0.0235616 -0.09347 -0.0207769 -0.0641526 -0.0519222 -0.0296058 -0.0246468 -0.0366192 -0.0649788 0.0193346 0.0188864 -0.126452 -0.0157786 -0.0122151 -0.0181936 -0.0256423 0.0125975 -0.0213757 -0.056345 -0.0840038 -0.0621376 -0.0550771 -0.0137534 0.0086597 -0.0488068 0.000843834 0.00905667 -0.0508902 -0.0355212 0.0026008 0.00565237
internal_weight=0 385513 1.29301e+06 218181 129978 167332 276617 1.01639e+06 194452 131388 88203 53007 75205 66704 25335 76971 92127 652403 56042 63064 82165 112172 58252 54633 37703 12572 36085 21499 33667 363988 29782 29397 644521 580219 27672 53695 5758 11980 29001 23431 45423 25131 5057 7824 64302 45049 31922 18084 19216 7515 23250 15741 21800 23795 9509 23005 34883 4989 30651 17973 4448 2472 13355 21386 22173 58477 14166 13525 9588 21509 25391 3113 23913 31628 3312 2070 23540 15231 19584 7773 4399 7607 5622 18112 8385 8575 15522 16716 13888 5121 3160 15490 2508 1631 4154 10536 4156 16888 13744 3144 6559 8415 5576 3034 2585 11790 17926 11100 5570 3348 34794 4520 6733 17040 15129 11204 204145 2828 9182 2448 14393 14588 16091 1933 26633 10831 900 184039 6923 7704 4912 1985 13588 9205 9747 8728 9872 7011 5719 4524 4196 5539 1247 18682 10666 3738 2654 11811 2376 4357 10998 8767 804 302 2730 8919 6794 5007 5172 2934 7462 4722 396180 218878 2325 1387 8250 3185 685 49202 764 2260 5470 1981 962 1820 159843 2349 13887 10483 2283 1978 7441 4162
internal_count=1678521 385513 1293008 218181 129978 167332 276617 1016391 194452 131388 88203 53007 75205 66704 25335 76971 92127 652403 56042 63064 82165 112172 58252 54633 37703 12572 36085 21499 33667 363988 29782 29397 644521 580219 27672 53695 5758 11980 29001 23431 45423 25131 5057 7824 64302 45049 31922 18084 19216 7515 23250 15741 21800 23795 9509 23005 34883 4989 30651 17973 4448 2472 13355 21386 22173 58477 14166 13525 9588 21509 25391 3113 23913 31628 3312 2070 23540 15231 19584 7773 4399 7607 5622 18112 8385 8575 15522 16716 13888 5121 3160 15490 2508 1631 4154 10536 4156 16888 13744 3144 6559 8415 5576 3034 2585 11790 17926 11100 5570 3348 34794 4520 6733 17040 15129 11204 204145 2828 9182 2448 14393 14588 16091 1933 26633 10831 900 184039 6923 7704 4912 1985 13588 9205 9747 8728 9872 7011 5719 4524 4196 5539 1247 18682 10666 3738 2654 11811 2376 4357 10998 8767 804 302 2730 8919 6794 5007 5172 2934 7462 4722 396180 218878 2325 1387 8250 3185 685 49202 764 2260 5470 1981 962 1820 159843 2349 13887 10483 2283 1978 7441 4162
is_linear=0
shrinkage=0.06


Tree=5
num_leaves=185
num_cat=0
split_feature=1 5 1 1 5 5 2 1 1 1 1 5 5 1 5 1 5 5 2 5 3 2 3 4 3 2 3 4 5 1 2 4 1 5 3 1 5 1 1 2 3 3 1 1 5 3 4 1 1 5 1 2 1 3 3 4 3 3 2 5 2 2 3 5 5 5 5 2 5 4 2 1 5 2 1 4 4 4 3 5 3 2 2 5 3 1 1 5 2 1 4 4 2 4 2 3 1 3 1 2 3 2 3 3 2 1 3 4 5 2 5 1 4 2 5 2 4 1 4 2 1 4 4 3 4 4 4 3 3 2 5 2 2 1 4 4 2 5 3 2 4 3 2 2 4 4 2 3 1 2 2 1 5 2 1 1 4 3 3 5 1 1 4 3 4 4 4 1 2 1 4 4 3 1 4 3 1 5 4 3 2 3 1 1
split_gain=189572 56626.3 14161.8 9906.34 9365.75 8209.23 5477.56 2324.28 1737.88 1683.83 1645.01 1516.33 1467.79 1392.8 1310.17 1160.31 1134.53 880.365 874.668 685.268 664.367 469.136 422.893 415.899 374.986 368.417 345.07 327.281 268.364 264.216 250.641 247.961 229.334 223.891 223.082 220.566 214.657 211.338 194.066 193.861 241.432 185.305 181.504 159.828 153.742 152.904 148.169 146.877 146.737 145.191 140.544 134.989 268.509 133.12 131.919 207.339 131.054 130.634 124.011 120.148 116.028 113.989 110.542 109.138 106.115 105.693 101.048 100.286 88.1692 82.393 83.6951 79.2985 79.2223 78.9535 76.3061 76.1974 77.8368 74.4565 99.2994 70.6792 70.4159 69.2705 69.2545 68.2623 66.6555 66.1558 64.5443 63.964 62.9428 61.1127 60.3125 89.7706 86.6683 59.9975 98.5728 63.985 59.3445 56.3731 55.9028 55.5204 54.1614 53.1555 52.5729 52.3764 52.0146 51.3746 50.4922 50.0761 49.9821 49.7279 49.2243 48.2254 47.5965 45.3945 45.1747 44.9655 70.2522 42.6919 42.6015 42.5164 41.7254 41.6181 58.47 41.3717 67.0644 41.0475 50.3104 39.9673 39.6673 38.5655 36.857 36.6416 35.7981 35.7364 35.7267 44.8601 34.3928 33.5784 33.4939 33.2968 32.8428 32.2915 32.0332 31.9919 31.777 35.9657 31.1651 31.0227 30.833 30.8253 34.5264 30.8117 30.4157 29.7974 29.7264 35.4912 29.5464 44.5722 29.1927 28.6552 28.3306 28.1137 28.0845 40.0865 28.0694 29.5839 27.7862 27.4629 27.4272 27.1959 27.0481 27.0291 26.8053 26.7799 26.5426 36.6384 26.4851 26.3143 26.0869 54.3262 35.532 26.0313 25.9996 25.6201
threshold=57.500000000000007 33.610449814029046 87.500000000000014 32.500000000000007 32.878309992788886 34.2249385070835 9.9305000000000003 1075.0000000000002 110.00000000000001 50.000000000000007 17.500000000000004 34.687999862670907 33.147942760208345 67.500000000000014 32.227577167970601 32.500000000000007 33.260061943758281 33.977054514867802 4.3480000000000008 33.901078711593364 91.640010000000018 9.9965000000000028 88.953500000000005 201.50000000000003 88.451000000000022 10.1805 92.408500000000018 183.50000000000003 34.719298242145648 725.00000000000011 10.659500000000003 197.50000000000003 1500.0000000000002 34.945999908493839 89.372500000000016 22.500000000000004 34.464100646961022 12.500000000000002 77.500000000000014 1.7750950000000001 88.380500000000012 110.33600000000001 42.500000000000007 17.500000000000004 32.601878874783644 87.71850000000002 324.50000000000006 32.500000000000007 22.500000000000004 32.125999725341806 72.500000000000014 5.3544950000000009 162.50000000000003 85.760181068115244 89.056000000000026 201.50000000000003 86.027500000000018 88.559500000000014 10.236500000000001 32.324580738612589 13.481134166666669 10.546000000000001 89.240498931884773 33.454705432158157 31.875157649296984 33.193000793483812 33.742228799025121 9.3594998283386257 33.147942760208345 221.50000000000003 13.365500000000003 50.000000000000007 34.082762813578988 13.226000000000001 77.500000000000014 165.50000000000003 323.50000000000006 80.500000000000014 89.307500000000019 33.088852786847816 88.160500000000013 4.8861550000000014 4.6139998855590809 33.393917973715382 112.63600000000001 72.500000000000014 300.00000000000006 32.360237322368256 4.4655000400543203 7.5000000000000009 141.50000000000003 295.50000000000006 6.1057500000000013 64.500000000000014 13.879039166666669 91.219500000000011 17.500000000000004 88.03366666666669 62.500000000000007 13.000500000000001 95.139500000000012 9.3594998283386257 92.354000000000013 94.31750000000001 4.8861550000000014 32.500000000000007 95.807000000000016 257.50000000000006 31.736000030517584 12.0265 33.930999877929693 42.500000000000007 263.50000000000006 4.7495000000000003 32.082750228881842 3.3420000038146953 157.50000000000003 22.500000000000004 233.50000000000003 17.144500000000004 22.500000000000004 289.50000000000006 116.50000000000001 92.354000000000013 218.50000000000003 120.50000000000001 284.50000000000006 88.380500000000012 85.038000000000025 1.7075000000000002 35.110499699891086 10.429000000000002 4.4655000400543203 42.500000000000007 191.50000000000003 310.50000000000006 17.087965000000004 34.822679344428444 93.375000000000014 16.725500000000004 210.50000000000003 94.693000000000012 7.0615000000000006 12.860923333333336 177.50000000000003 296.50000000000006 16.78316666666667 95.807000000000016 67.500000000000014 4.8861550000000014 16.94403339944731 72.500000000000014 33.065018985208461 12.131500000000001 512.50000000000011 200.00000000000003 309.50000000000006 87.854500000000016 95.139500000000012 33.193000793483812 17.500000000000004 42.500000000000007 163.50000000000003 89.744500000000016 147.50000000000003 295.50000000000006 330.50000000000006 875.00000000000011 6.6430000000000016 50.000000000000007 195.50000000000003 313.50000000000006 89.634500000000017 77.500000000000014 309.50000000000006 87.506500000000017 17.500000000000004 31.135814062500003 63.500000000000007 89.711500000000015 16.725500000000004 88.62803833333335 37.500000000000007 72.500000000000014
decision_type=2 2 2 2 2 2 2 2 2 2 2 2 2 2 2 2 2 2 2 2 2 2 2 2 2 2 2 2 2 2 2 2 2 2 2 2 2 2 2 2 2 2 2 2 2 2 2 2 2 2 2 2 2 2 2 2 2 2 2 2 2 2 2 2 2 2 2 2 2 2 2 2 2 2 2 2 2 2 2 2 2 2 2 2 2 2 2 2 2 2 2 2 2 2 2 2 2 2 2 2 2 2 2 2 2 2 2 2 2 2 2 2 2 2 2 2 2 2 2 2 2 2 2 2 2 2 2 2 2 2 2 2 2 2 2 2 2 2 2 2 2 2 2 2 2 2 2 2 2 2 2 2 2 2 2 2 2 2 2 2 2 2 2 2 2 2 2 2 2 2 2 2 2 2 2 2 2 2 2 2 2 2 2 2
left_child=1 3 6 4 10 15 17 8 18 12 14 36 24 22 37 19 43 39 129 66 31 56 23 65 27 57 68 49 53 41 80 38 -9 109 99 59 47 64 83 106 -41 51 61 79 -16 75 112 160 63 128 82 86 -53 115 55 114 81 107 127 123 -48 84 111 -18 89 -8 120 171 -20 110 133 90 117 -25 139 108 -77 87 170 -6 140 164 134 183 -26 125 -10 -47 -52 -1 92 142 141 119 172 166 -68 -69 162 -33 -90 -51 118 -84 -44 -38 148 -14 -37 137 169 -27 136 144 -32 116 -19 -21 -39 -63 -3 122 -49 124 -12 -55 168 -50 -5 -4 -35 -98 -82 -71 -42 -136 -29 -13 -76 -22 -11 -58 -92 -40 -59 -146 -140 -134 -2 -80 -151 -118 -99 -67 155 -54 157 -126 -28 173 -7 -83 -24 -164 -17 -166 -96 -31 -127 -23 -79 -45 -95 -36 175 -120 -74 -91 -106 -180 -181 -61 -130 -15
right_child=2 5 7 9 16 11 13 32 29 30 35 33 25 20 44 21 48 28 26 72 74 69 98 73 42 62 158 46 -30 167 54 34 -34 130 159 45 105 102 143 40 50 -43 104 67 -46 77 60 121 58 101 88 52 154 85 -56 -57 71 113 -60 181 -62 93 -64 -65 -66 153 96 97 -70 70 -72 -73 176 -75 138 76 -78 78 149 -81 132 161 103 -85 -86 -87 -88 -89 100 177 91 -93 -94 94 95 -97 131 152 -100 -101 -102 -103 -104 -105 178 -107 -108 -109 -110 -111 -112 -113 -114 -115 -116 -117 151 -119 174 -121 -122 -123 -124 -125 156 126 -128 -129 182 -131 -132 -133 147 -135 135 -137 -138 -139 146 -141 -142 -143 -144 -145 145 -147 -148 -149 -150 150 -152 -153 -154 -155 -156 -157 -158 -159 -160 -161 -162 -163 163 -165 165 -167 -168 -169 -170 -171 -172 -173 -174 -175 -176 -177 -178 -179 179 180 -182 -183 -184 -185
leaf_value=-0.13388028159931953 0.0080496585463217529 -0.039803061839577082 0.023712482871102832 -0.04922626362856606 -0.070655857095177341 -0.011739436803100358 -0.025006708863916038 0.011255444074490969 0.020473012831837889 -0.010808180013020403 -0.09701694683920882 0.0093313424565007637 -0.02087598687428328 -0.015655603274116792 -0.093120950599121677 0.017216684501931572 -0.053760999461361439 0.02609357292645377 0.003140541276037185 -0.025744591166112898 -0.021092942671333513 -0.030650175377264763 -0.030985184590097106 0.004212024225593216 -0.040022676949207907 -0.038906578040903368 -0.00098062391099920762 -0.041635366107034957 0.02167733968402458 0.015358407600924809 -0.0430968227256543 0.0087365097250952876 0.0081090812982022534 0.019683668714915215 -0.011019547572803878 -0.088613170184308171 -0.00010662473893085407 -0.10602776386986384 0.0013254706719406308 0.0060688867815602513 0.0072895954790723576 -1.7808713987326164e-05 -0.017496021390792781 -0.050785362715060685 -0.080956107907592764 -0.088660088090573325 -0.022474272375938902 0.0045456817817497224 -0.028755441149746729 -0.027071816265110658 0.0078390229612853076 0.012636654938316859 0.015553550291574816 0.010839636251613825 -0.035186006101752328 -0.013205817405452236 0.0012167618193900413 -0.0077202021968641775 -0.046875524519563963 -0.07167878570082846 -0.051188513978842283 -0.06282048464015523 -0.045616204052804275 -0.046466291366946695 -0.11100255465288605 -0.01020961849281748 -0.034372518707301465 -0.055287695230589184 0.0082660086401075 -0.016041383670493545 -0.024849142526648084 -0.0040269852203308849 -0.019715295828600932 -0.0073156008195907948 -0.006592063132655231 -0.042357682123699808 -0.065224069789577122 -0.069883504790670223 -0.042104757443961242 -0.062700006257283128 -0.0088548552480489495 -0.010323091936479017 -0.01152344041085312 -0.005426136515007703 -0.071944341251061972 0.012130378201014593 0.018023491864149428 -0.069488965153622503 -0.001085610787215153 -0.10914308689192372 -0.022240084256007438 -0.00567752422791243 -0.021402672593708594 -0.058874587274704376 -0.05072766409313547 -0.062667003246118 -0.023620290373388718 -0.06688211308063513 -0.021457868773939667 0.0023179609422317288 -0.024827914678785219 -0.049356402432874778 -0.11621848027429493 -0.031935843950624883 -0.058216822671025854 0.0059867942505482186 -0.0031975139658842236 -0.0054636090513724683 -0.066827978226092308 -0.047814525280366928 -0.018370081825718493 -0.030170663339043134 -0.019333152592849553 -0.03561972038245239 -0.029407303507280512 0.011929756610984244 0.010513399671414278 -0.018986724392076881 -0.056834079132860767 -0.077562214273824981 -0.033084056964445219 0.0079587479536624966 -0.0056515754728233983 -0.10406569203335225 -0.047835570824584242 -0.00037991593034062662 0.011808958103333397 -0.039646668467094276 -0.07851318958151432 0.017505768399231826 0.027201254557253737 -0.032131630140743085 -0.022054195462319202 -0.0023324257100336902 -0.011264494951925856 0.0070754805521733586 -0.014234856240073675 0.01475664565297622 -0.017591454294763123 -0.014747562493117998 0.0067050702355253107 -0.019276747653007367 -0.011273569809645013 -0.0037332649026195286 -0.034870962438451107 -0.016174450438712018 -0.010029861801167116 -0.049208517356352371 0.018459969362161165 -0.079543494891354677 -0.071277389783558784 0.019450460138010342 -0.059707246329814521 -0.018090851180676017 0.016449306972887691 0.018115765403130795 -0.090198424042058661 -0.080001874542129883 -0.0082938657281907274 0.001688491939682028 -0.0068079727496789463 -2.4613353204903147e-05 -0.013699342600818318 -0.026815882321055341 -0.0086788516039721288 0.012543215059312879 -0.064061638222157546 0.013724984951313711 0.010208628286828966 -0.022426251699366885 -0.05670772791297049 -0.036188621511367612 -0.070598052025800523 -0.0042522067686818236 -0.10173565830493045 -0.090291949236030622 -0.013581805334115363 -0.12353153392896687 -0.040638083876090379 -0.055976639080511141 -0.045536512491704401 -0.08103730580763048 -0.064012008340612908 -0.010217338211587766
leaf_weight=1931 1539 10188 6182 464 8371 8477 6480 179142 62058 1075 1809 10176 2311 6277 6690 819 15118 3151 22652 10239 5838 5167 4614 3507 1312 6891 2680 755 12385 78232 1155 7725 156041 5767 4154 461 12811 1428 7357 14970 964 2174 168 1791 8482 2537 669 3156 2048 416 3230 46874 21550 4372 9089 3337 2231 359 9439 1697 2087 1353 7459 14432 2825 3291 7878 4968 25894 1393 2289 3927 5122 5483 3997 932 1261 1009 92 7734 741 1952 5513 6648 287 12683 103000 832 5759 653 5136 2026 1112 878 4144 4222 4652 4298 11608 13043 368 5228 767 493 1567 8150 625 1130 2135 51 2368 3396 1928 3024 3490 5306 2843 5013 138 1469 4941 1826 5645 769 185 5779 2124 2975 655 8642 3960 2992 1846 1346 1791 656 211 6886 3474 6075 601 316 1179 11591 943 610 4509 165 3062 5961 2618 2715 4211 3634 69933 200884 738 959 7365 1397 8300 1867 981 5787 468 478 651 70402 1039 2011 1263 613 3505 4268 577 806 5017 1529 1798 3708 1717 2896 1389 6198
leaf_count=1931 1539 10188 6182 464 8371 8477 6480 179142 62058 1075 1809 10176 2311 6277 6690 819 15118 3151 22652 10239 5838 5167 4614 3507 1312 6891 2680 755 12385 78232 1155 7725 156041 5767 4154 461 12811 1428 7357 14970 964 2174 168 1791 8482 2537 669 3156 2048 416 3230 46874 21550 4372 9089 3337 2231 359 9439 1697 2087 1353 7459 14432 2825 3291 7878 4968 25894 1393 2289 3927 5122 5483 3997 932 1261 1009 92 7734 741 1952 5513 6648 287 12683 103000 832 5759 653 5136 2026 1112 878 4144 4222 4652 4298 11608 13043 368 5228 767 493 1567 8150 625 1130 2135 51 2368 3396 1928 3024 3490 5306 2843 5013 138 1469 4941 1826 5645 769 185 5779 2124 2975 655 8642 3960 2992 1846 1346 1791 656 211 6886 3474 6075 601 316 1179 11591 943 610 4509 165 3062 5961 2618 2715 4211 3634 69933 200884 738 959 7365 1397 8300 1867 981 5787 468 478 651 70402 1039 2011 1263 613 3505 4268 577 806 5017 1529 1798 3708 1717 2896 1389 6198
